{"learner":{"attributes":{"scikit_learn":"{\"n_estimators\": 200, \"objective\": \"reg:linear\", \"max_depth\": 6, \"learning_rate\": 0.1, \"verbosity\": null, \"booster\": null, \"tree_method\": null, \"gamma\": 0, \"min_child_weight\": 3, \"max_delta_step\": 0, \"subsample\": 0.8, \"colsample_bytree\": 0.7, \"colsample_bylevel\": 1, \"colsample_bynode\": null, \"reg_alpha\": 0, \"reg_lambda\": 1, \"scale_pos_weight\": null, \"base_score\": null, \"missing\": null, \"num_parallel_tree\": null, \"kwargs\": {\"silent\": true, \"nthread\": -1, \"seed\": 1440}, \"random_state\": null, \"n_jobs\": null, \"monotone_constraints\": null, \"interaction_constraints\": null, \"importance_type\": \"gain\", \"gpu_id\": null, \"validate_parameters\": null, \"type\": \"XGBRegressor\"}"},"gradient_booster":{"model":{"gbtree_model_param":{"num_trees":"200","size_leaf_vector":"0"},"tree_info":[0,0,0,0,0,0,0,0,0,0,0,0,0,0,0,0,0,0,0,0,0,0,0,0,0,0,0,0,0,0,0,0,0,0,0,0,0,0,0,0,0,0,0,0,0,0,0,0,0,0,0,0,0,0,0,0,0,0,0,0,0,0,0,0,0,0,0,0,0,0,0,0,0,0,0,0,0,0,0,0,0,0,0,0,0,0,0,0,0,0,0,0,0,0,0,0,0,0,0,0,0,0,0,0,0,0,0,0,0,0,0,0,0,0,0,0,0,0,0,0,0,0,0,0,0,0,0,0,0,0,0,0,0,0,0,0,0,0,0,0,0,0,0,0,0,0,0,0,0,0,0,0,0,0,0,0,0,0,0,0,0,0,0,0,0,0,0,0,0,0,0,0,0,0,0,0,0,0,0,0,0,0,0,0,0,0,0,0,0,0,0,0,0,0,0,0,0,0,0,0],"trees":[{"base_weights":[1.14014034271240234e+01,3.53176460266113281e+01,4.41788721084594727e+00,6.38890037536621094e+01,1.88711318969726562e+01,1.00162725448608398e+01,3.72349262237548828e+00,8.45034408569335938e+01,5.37930641174316406e+01,2.79172191619873047e+01,1.12956628799438477e+01,1.62605361938476562e+01,5.44488000869750977e+00,4.90782785415649414e+00,2.43600583076477051e+00,1.05069572448730469e+02,6.72325363159179688e+01,3.92601013183593750e+01,5.95896110534667969e+01,1.90605964660644531e+01,3.11537971496582031e+01,1.48362836837768555e+01,7.39398241043090820e+00,9.13624382019042969e+00,2.20789527893066406e+01,3.37685656547546387e+00,7.43932008743286133e+00,7.05768346786499023e+00,4.37606763839721680e+00,3.05608844757080078e+00,1.91301989555358887e+00,7.91931610107421875e+01,1.22049934387207031e+02,7.91206893920898438e+01,5.71543846130371094e+01,6.97574005126953125e+01,3.47125015258789062e+01,8.07167968750000000e+01,5.12508811950683594e+01,2.14245033264160156e+01,8.97793292999267578e+00,5.04513702392578125e+01,2.76992187500000000e+01,1.74601345062255859e+01,1.23301277160644531e+01,1.00123538970947266e+01,5.84639739990234375e+00,1.65988502502441406e+01,7.94488430023193359e+00,3.02712688446044922e+01,1.81896209716796875e+01,4.60726308822631836e+00,2.46583604812622070e+00,1.14344196319580078e+01,5.27286958694458008e+00,4.02146100997924805e+00,9.54274940490722656e+00,5.49464988708496094e+00,3.92229413986206055e+00,2.17246127128601074e+00,3.25858020782470703e+00,2.15864181518554688e+00,1.48682701587677002e+00,1.16708381652832031e+02,6.79969024658203125e+01,1.47800704956054688e+02,9.97365036010742188e+01,6.09736747741699219e+01,9.65546264648437500e+01,3.45468826293945312e+01,5.87184295654296875e+01,7.64671096801757812e+01,2.31879253387451172e+01,3.98072929382324219e+01,2.25599460601806641e+01,8.46862640380859375e+01,7.40351562500000000e+01,4.50640373229980469e+01,6.18893623352050781e+01,2.53827953338623047e+01,1.79079532623291016e+01,1.21558666229248047e+01,6.05741071701049805e+00,5.42209167480468750e+01,2.88237152099609375e+01,4.04725036621093750e+01,2.57539710998535156e+01,1.22959003448486328e+01,2.23482265472412109e+01,4.20874166488647461e+00,1.28381576538085938e+01,5.50376558303833008e+00,1.21275606155395508e+01,1.13847942352294922e+01,5.57621479034423828e+00,2.59581871032714844e+01,1.28683633804321289e+01,1.09970092773437500e+01,6.35697126388549805e+00,3.41629791259765625e+01,2.50142078399658203e+01,2.05208358764648438e+01,1.55492887496948242e+01,4.47171831130981445e+00,1.66585121154785156e+01,2.09053945541381836e+00,3.98548412322998047e+00,1.51933889389038086e+01,9.78538322448730469e+00,6.35703945159912109e+00,2.79537916183471680e+00,6.19212007522583008e+00,3.34135770797729492e+00,1.25666007995605469e+01,8.71952915191650391e+00,3.52974843978881836e+00,6.43691396713256836e+00,4.68054103851318359e+00,3.44874310493469238e+00,1.93157553672790527e+00,2.88824939727783203e+00,4.58548593521118164e+00,2.94592595100402832e+00,1.70897293090820312e+00,2.32127928733825684e+00,1.20707488059997559e+00,1.59054946899414062e+00],"default_left":[true,true,true,true,true,true,true,true,true,true,true,true,true,true,true,true,true,true,true,true,true,true,true,true,true,true,true,true,true,true,true,true,true,true,true,true,true,true,true,true,true,true,true,true,true,true,true,true,true,true,true,true,true,true,true,true,true,true,true,true,true,true,true,false,false,false,false,false,false,false,false,false,false,false,false,false,false,false,false,false,false,false,false,false,false,false,false,false,false,false,false,false,false,false,false,false,false,false,false,false,false,false,false,false,false,false,false,false,false,false,false,false,false,false,false,false,false,false,false,false,false,false,false,false,false,false,false],"id":0,"leaf_child_counts":[0,0,0,0,0,0,0,0,0,0,0,0,0,0,0,0,0,0,0,0,0,0,0,0,0,0,0,0,0,0,0,0,0,0,0,0,0,0,0,0,0,0,0,0,0,0,0,0,0,0,0,0,0,0,0,0,0,0,0,0,0,0,0,0,0,0,0,0,0,0,0,0,0,0,0,0,0,0,0,0,0,0,0,0,0,0,0,0,0,0,0,0,0,0,0,0,0,0,0,0,0,0,0,0,0,0,0,0,0,0,0,0,0,0,0,0,0,0,0,0,0,0,0,0,0,0,0],"left_children":[1,3,5,7,9,11,13,15,17,19,21,23,25,27,29,31,33,35,37,39,41,43,45,47,49,51,53,55,57,59,61,63,65,67,69,71,73,75,77,79,81,83,85,87,89,91,93,95,97,99,101,103,105,107,109,111,113,115,117,119,121,123,125,-1,-1,-1,-1,-1,-1,-1,-1,-1,-1,-1,-1,-1,-1,-1,-1,-1,-1,-1,-1,-1,-1,-1,-1,-1,-1,-1,-1,-1,-1,-1,-1,-1,-1,-1,-1,-1,-1,-1,-1,-1,-1,-1,-1,-1,-1,-1,-1,-1,-1,-1,-1,-1,-1,-1,-1,-1,-1,-1,-1,-1,-1,-1,-1],"loss_changes":[1.65758570000000000e+07,1.05386360000000000e+07,2.98588125000000000e+05,1.70080800000000000e+06,9.75323000000000000e+05,2.41858687500000000e+05,1.04197000000000000e+05,9.49124000000000000e+05,4.61238000000000000e+05,1.85385500000000000e+05,1.06951687500000000e+05,1.48279687500000000e+05,2.01645468750000000e+04,4.06627500000000000e+04,1.06138125000000000e+04,5.29467000000000000e+05,1.71120500000000000e+05,2.15598500000000000e+05,6.88579000000000000e+05,4.12558125000000000e+04,3.15261500000000000e+05,2.64955000000000000e+04,1.48898593750000000e+04,1.41998437500000000e+04,6.22506250000000000e+04,2.68446484375000000e+03,2.14997812500000000e+04,5.32081875000000000e+04,1.44648750000000000e+04,2.67342187500000000e+03,1.85668359375000000e+03,1.97459000000000000e+05,4.09880000000000000e+05,2.06083250000000000e+05,2.61525000000000000e+04,6.16577500000000000e+04,8.39251250000000000e+04,2.31970000000000000e+04,1.82951000000000000e+05,1.91441875000000000e+04,3.00773242187500000e+03,5.71361250000000000e+04,9.91167500000000000e+04,4.97573125000000000e+04,8.53196875000000000e+03,1.29888437500000000e+04,3.40960937500000000e+03,7.38215234375000000e+03,6.67643750000000000e+03,1.20960000000000000e+04,7.92268750000000000e+03,1.59492382812500000e+03,7.80988281250000000e+02,5.27517187500000000e+03,4.32552734375000000e+03,4.67090234375000000e+03,9.54890625000000000e+03,1.52221562500000000e+04,7.27546875000000000e+03,4.76516601562500000e+02,5.04200781250000000e+03,8.20167968750000000e+02,1.86658203125000000e+02,0.00000000000000000e+00,0.00000000000000000e+00,0.00000000000000000e+00,0.00000000000000000e+00,0.00000000000000000e+00,0.00000000000000000e+00,0.00000000000000000e+00,0.00000000000000000e+00,0.00000000000000000e+00,0.00000000000000000e+00,0.00000000000000000e+00,0.00000000000000000e+00,0.00000000000000000e+00,0.00000000000000000e+00,0.00000000000000000e+00,0.00000000000000000e+00,0.00000000000000000e+00,0.00000000000000000e+00,0.00000000000000000e+00,0.00000000000000000e+00,0.00000000000000000e+00,0.00000000000000000e+00,0.00000000000000000e+00,0.00000000000000000e+00,0.00000000000000000e+00,0.00000000000000000e+00,0.00000000000000000e+00,0.00000000000000000e+00,0.00000000000000000e+00,0.00000000000000000e+00,0.00000000000000000e+00,0.00000000000000000e+00,0.00000000000000000e+00,0.00000000000000000e+00,0.00000000000000000e+00,0.00000000000000000e+00,0.00000000000000000e+00,0.00000000000000000e+00,0.00000000000000000e+00,0.00000000000000000e+00,0.00000000000000000e+00,0.00000000000000000e+00,0.00000000000000000e+00,0.00000000000000000e+00,0.00000000000000000e+00,0.00000000000000000e+00,0.00000000000000000e+00,0.00000000000000000e+00,0.00000000000000000e+00,0.00000000000000000e+00,0.00000000000000000e+00,0.00000000000000000e+00,0.00000000000000000e+00,0.00000000000000000e+00,0.00000000000000000e+00,0.00000000000000000e+00,0.00000000000000000e+00,0.00000000000000000e+00,0.00000000000000000e+00,0.00000000000000000e+00,0.00000000000000000e+00,0.00000000000000000e+00,0.00000000000000000e+00,0.00000000000000000e+00],"parents":[2147483647,0,0,1,1,2,2,3,3,4,4,5,5,6,6,7,7,8,8,9,9,10,10,11,11,12,12,13,13,14,14,15,15,16,16,17,17,18,18,19,19,20,20,21,21,22,22,23,23,24,24,25,25,26,26,27,27,28,28,29,29,30,30,31,31,32,32,33,33,34,34,35,35,36,36,37,37,38,38,39,39,40,40,41,41,42,42,43,43,44,44,45,45,46,46,47,47,48,48,49,49,50,50,51,51,52,52,53,53,54,54,55,55,56,56,57,57,58,58,59,59,60,60,61,61,62,62],"right_children":[2,4,6,8,10,12,14,16,18,20,22,24,26,28,30,32,34,36,38,40,42,44,46,48,50,52,54,56,58,60,62,64,66,68,70,72,74,76,78,80,82,84,86,88,90,92,94,96,98,100,102,104,106,108,110,112,114,116,118,120,122,124,126,-1,-1,-1,-1,-1,-1,-1,-1,-1,-1,-1,-1,-1,-1,-1,-1,-1,-1,-1,-1,-1,-1,-1,-1,-1,-1,-1,-1,-1,-1,-1,-1,-1,-1,-1,-1,-1,-1,-1,-1,-1,-1,-1,-1,-1,-1,-1,-1,-1,-1,-1,-1,-1,-1,-1,-1,-1,-1,-1,-1,-1,-1,-1,-1],"split_conditions":[2.01500000000000000e+02,4.36569511890411377e-01,8.07500000000000000e+02,1.18343502283096313e-01,7.45259523391723633e-01,5.17033457756042480e-01,6.16044044494628906e-01,1.25500000000000000e+02,6.52107648000000000e+08,1.42900000000000000e+03,8.67272496223449707e-01,6.51499264000000000e+08,1.51300000000000000e+03,1.82650000000000000e+03,8.05992484092712402e-01,6.51499264000000000e+08,1.50500000000000000e+02,1.09500000000000000e+02,1.25500000000000000e+02,7.55000000000000000e+01,1.75550000000000000e+03,1.01500000000000000e+02,9.03425514698028564e-01,7.15000000000000000e+01,4.03500000000000000e+02,7.33500000000000000e+02,7.23878502845764160e-01,6.51499264000000000e+08,1.95558450000000000e+06,2.57297904000000000e+08,9.05809521675109863e-01,3.15000000000000000e+01,1.27650000000000000e+03,1.15330201600000000e+09,7.16148224000000000e+08,1.00500000000000000e+02,5.00000000000000000e+00,1.53450000000000000e+03,6.28335200000000000e+06,4.92500000000000000e+02,4.94000000000000000e+02,6.56303048133850098e-01,7.49855744000000000e+08,1.23600000000000000e+03,1.18150000000000000e+03,1.22450000000000000e+03,2.52473440000000000e+08,3.78500000000000000e+02,4.03500000000000000e+02,2.40566492080688477e-01,2.21546500921249390e-01,7.30500000000000000e+02,3.50000000000000000e+00,4.26500000000000000e+02,8.96728515625000000e-01,1.45500000000000000e+02,1.05050000000000000e+03,7.50000000000000000e+00,4.25850000000000000e+03,3.50000000000000000e+00,1.93350000000000000e+03,7.50000000000000000e+00,6.83509000000000000e+05,1.16708383560180664e+01,6.79969024658203125e+00,1.47800703048706055e+01,9.97365093231201172e+00,6.09736776351928711e+00,9.65546321868896484e+00,3.45468831062316895e+00,5.87184286117553711e+00,7.64671087265014648e+00,2.31879258155822754e+00,3.98072934150695801e+00,2.25599455833435059e+00,8.46862697601318359e+00,7.40351581573486328e+00,4.50640392303466797e+00,6.18893623352050781e+00,2.53827953338623047e+00,1.79079532623291016e+00,1.21558666229248047e+00,6.05741083621978760e-01,5.42209196090698242e+00,2.88237166404724121e+00,4.04725027084350586e+00,2.57539725303649902e+00,1.22959005832672119e+00,2.23482275009155273e+00,4.20874178409576416e-01,1.28381574153900146e+00,5.50376594066619873e-01,1.21275603771209717e+00,1.13847947120666504e+00,5.57621479034423828e-01,2.59581875801086426e+00,1.28683638572692871e+00,1.09970092773437500e+00,6.35697126388549805e-01,3.41629791259765625e+00,2.50142073631286621e+00,2.05208373069763184e+00,1.55492889881134033e+00,4.47171837091445923e-01,1.66585123538970947e+00,2.09053948521614075e-01,3.98548424243927002e-01,1.51933896541595459e+00,9.78538334369659424e-01,6.35703980922698975e-01,2.79537916183471680e-01,6.19212031364440918e-01,3.34135770797729492e-01,1.25666010379791260e+00,8.71952950954437256e-01,3.52974861860275269e-01,6.43691420555114746e-01,4.68054115772247314e-01,3.44874322414398193e-01,1.93157553672790527e-01,2.88824945688247681e-01,4.58548605442047119e-01,2.94592589139938354e-01,1.70897290110588074e-01,2.32127934694290161e-01,1.20707489550113678e-01,1.59054949879646301e-01],"split_indices":[14,10,14,10,10,10,10,14,6,0,10,6,0,14,10,6,14,0,14,14,0,14,10,0,14,0,10,6,16,6,10,0,0,6,6,14,5,0,16,0,0,10,6,0,0,0,6,14,14,10,10,0,4,14,10,0,14,7,14,4,0,7,16,0,0,0,0,0,0,0,0,0,0,0,0,0,0,0,0,0,0,0,0,0,0,0,0,0,0,0,0,0,0,0,0,0,0,0,0,0,0,0,0,0,0,0,0,0,0,0,0,0,0,0,0,0,0,0,0,0,0,0,0,0,0,0,0],"sum_hessian":[9.92450000000000000e+04,2.24290000000000000e+04,7.68160000000000000e+04,8.19300000000000000e+03,1.42360000000000000e+04,8.47500000000000000e+03,6.83410000000000000e+04,2.69100000000000000e+03,5.50200000000000000e+03,6.48700000000000000e+03,7.74900000000000000e+03,3.58100000000000000e+03,4.89400000000000000e+03,3.55950000000000000e+04,3.27460000000000000e+04,1.22600000000000000e+03,1.46500000000000000e+03,1.57100000000000000e+03,3.93100000000000000e+03,1.73800000000000000e+03,4.74900000000000000e+03,4.06100000000000000e+03,3.68800000000000000e+03,1.61100000000000000e+03,1.97000000000000000e+03,2.40400000000000000e+03,2.49000000000000000e+03,7.05600000000000000e+03,2.85390000000000000e+04,1.49800000000000000e+04,1.77660000000000000e+04,4.88000000000000000e+02,7.38000000000000000e+02,6.69000000000000000e+02,7.96000000000000000e+02,2.02000000000000000e+02,1.36900000000000000e+03,1.11000000000000000e+03,2.82100000000000000e+03,1.40700000000000000e+03,3.31000000000000000e+02,7.19000000000000000e+02,4.03000000000000000e+03,1.98100000000000000e+03,2.08000000000000000e+03,1.36800000000000000e+03,2.32000000000000000e+03,2.20000000000000000e+02,1.39100000000000000e+03,6.32000000000000000e+02,1.33800000000000000e+03,1.02100000000000000e+03,1.38300000000000000e+03,8.74000000000000000e+02,1.61600000000000000e+03,3.17700000000000000e+03,3.87900000000000000e+03,8.23300000000000000e+03,2.03060000000000000e+04,2.79500000000000000e+03,1.21850000000000000e+04,1.12680000000000000e+04,6.49800000000000000e+03,1.10000000000000000e+02,3.78000000000000000e+02,3.40000000000000000e+02,3.98000000000000000e+02,3.30000000000000000e+02,3.39000000000000000e+02,5.30000000000000000e+01,7.43000000000000000e+02,1.76000000000000000e+02,2.60000000000000000e+01,9.63000000000000000e+02,4.06000000000000000e+02,6.89000000000000000e+02,4.21000000000000000e+02,1.78700000000000000e+03,1.03400000000000000e+03,6.59000000000000000e+02,7.48000000000000000e+02,1.57000000000000000e+02,1.74000000000000000e+02,6.11000000000000000e+02,1.08000000000000000e+02,5.30000000000000000e+02,3.50000000000000000e+03,9.65000000000000000e+02,1.01600000000000000e+03,1.23000000000000000e+02,1.95700000000000000e+03,4.38000000000000000e+02,9.30000000000000000e+02,1.06000000000000000e+02,2.21400000000000000e+03,6.10000000000000000e+01,1.59000000000000000e+02,4.74000000000000000e+02,9.17000000000000000e+02,3.60000000000000000e+02,2.72000000000000000e+02,7.07000000000000000e+02,6.31000000000000000e+02,1.01100000000000000e+03,1.00000000000000000e+01,1.11100000000000000e+03,2.72000000000000000e+02,2.64000000000000000e+02,6.10000000000000000e+02,1.12300000000000000e+03,4.93000000000000000e+02,7.56000000000000000e+02,2.42100000000000000e+03,8.27000000000000000e+02,3.05200000000000000e+03,2.67000000000000000e+03,5.56300000000000000e+03,7.80300000000000000e+03,1.25030000000000000e+04,2.09400000000000000e+03,7.01000000000000000e+02,2.32100000000000000e+03,9.86400000000000000e+03,2.99600000000000000e+03,8.27200000000000000e+03,1.76100000000000000e+03,4.73700000000000000e+03],"tree_param":{"num_deleted":"0","num_feature":"21","num_nodes":"127","size_leaf_vector":"0"}},{"base_weights":[1.03007068634033203e+01,3.21263961791992188e+01,3.97644495964050293e+00,5.75387039184570312e+01,1.71445903778076172e+01,1.04698343276977539e+01,3.48812198638916016e+00,7.46803894042968750e+01,4.67499504089355469e+01,2.70031394958496094e+01,1.13801918029785156e+01,1.73632125854492188e+01,5.65353059768676758e+00,4.66836452484130859e+00,2.29887533187866211e+00,8.97136383056640625e+01,6.21543884277343750e+01,3.17878322601318359e+01,5.20040550231933594e+01,1.78301086425781250e+01,3.03338871002197266e+01,1.50053997039794922e+01,7.36647891998291016e+00,1.00213022232055664e+01,2.31741352081298828e+01,8.25600433349609375e+00,3.82222938537597656e+00,7.80086708068847656e+00,4.10595226287841797e+00,3.02843165397644043e+00,1.89161646366119385e+00,6.84691848754882812e+01,1.04686531066894531e+02,3.81121063232421875e+01,6.59111328125000000e+01,5.86309356689453125e+01,2.85470981597900391e+01,7.10558090209960938e+01,4.53050346374511719e+01,1.95940055847167969e+01,1.00050725936889648e+01,4.31267356872558594e+01,2.44619503021240234e+01,1.75260086059570312e+01,1.26866960525512695e+01,8.81633949279785156e+00,4.34823036193847656e+00,2.01024475097656250e+01,8.71498489379882812e+00,2.80708808898925781e+01,1.89052581787109375e+01,4.60302257537841797e+00,1.17019300460815430e+01,5.29775571823120117e+00,2.69355511665344238e+00,4.38815021514892578e+00,1.06357393264770508e+01,2.66595220565795898e+00,4.40704059600830078e+00,4.12710285186767578e+00,2.76389169692993164e+00,2.11445212364196777e+00,1.43441605567932129e+00,1.05048347473144531e+02,6.06506233215332031e+01,1.33688049316406250e+02,8.78211669921875000e+01,2.57373142242431641e+01,4.17582855224609375e+01,7.95761032104492188e+01,5.46903953552246094e+01,6.53094253540039062e+01,1.92341899871826172e+01,3.14491844177246094e+01,1.37281560897827148e+01,8.34028244018554688e+01,6.82457504272460938e+01,3.96579055786132812e+01,5.34778747558593750e+01,2.30203666687011719e+01,1.67886734008789062e+01,1.25625638961791992e+01,6.12181472778320312e+00,5.49823455810546875e+01,3.79821701049804688e+01,3.40744056701660156e+01,2.11696224212646484e+01,1.26994142532348633e+01,2.24547672271728516e+01,3.93465876579284668e+00,1.31745882034301758e+01,1.04595260620117188e+01,6.83643960952758789e+00,4.22154283523559570e+00,1.26948852539062500e+01,5.35624885559082031e+01,1.86901283264160156e+01,1.13870658874511719e+01,6.72283840179443359e+00,7.74230041503906250e+01,2.73263607025146484e+01,2.01996574401855469e+01,1.35256013870239258e+01,4.48258495330810547e+00,2.26018619537353516e+01,1.74574813842773438e+01,1.05012331008911133e+01,3.62217235565185547e+00,7.35677146911621094e+00,3.55562853813171387e+00,1.74097359180450439e+00,7.47392559051513672e+00,3.78722691535949707e+00,1.22613964080810547e+01,8.74611282348632812e+00,4.31897258758544922e+00,2.17599511146545410e+00,5.96601247787475586e+00,3.62729310989379883e+00,2.46166992187500000e+00,5.62385606765747070e+00,1.89422035217285156e+00,2.92823863029479980e+00,2.64740157127380371e+00,1.94370007514953613e+00,4.05815982818603516e+00,1.41527009010314941e+00],"default_left":[true,true,true,true,true,true,true,true,true,true,true,true,true,true,true,true,true,true,true,true,true,true,true,true,true,true,true,true,true,true,true,true,true,true,true,true,true,true,true,true,true,true,true,true,true,true,true,true,true,true,true,true,true,true,true,true,true,true,true,true,true,true,true,false,false,false,false,false,false,false,false,false,false,false,false,false,false,false,false,false,false,false,false,false,false,false,false,false,false,false,false,false,false,false,false,false,false,false,false,false,false,false,false,false,false,false,false,false,false,false,false,false,false,false,false,false,false,false,false,false,false,false,false,false,false,false,false],"id":1,"leaf_child_counts":[0,0,0,0,0,0,0,0,0,0,0,0,0,0,0,0,0,0,0,0,0,0,0,0,0,0,0,0,0,0,0,0,0,0,0,0,0,0,0,0,0,0,0,0,0,0,0,0,0,0,0,0,0,0,0,0,0,0,0,0,0,0,0,0,0,0,0,0,0,0,0,0,0,0,0,0,0,0,0,0,0,0,0,0,0,0,0,0,0,0,0,0,0,0,0,0,0,0,0,0,0,0,0,0,0,0,0,0,0,0,0,0,0,0,0,0,0,0,0,0,0,0,0,0,0,0,0],"left_children":[1,3,5,7,9,11,13,15,17,19,21,23,25,27,29,31,33,35,37,39,41,43,45,47,49,51,53,55,57,59,61,63,65,67,69,71,73,75,77,79,81,83,85,87,89,91,93,95,97,99,101,103,105,107,109,111,113,115,117,119,121,123,125,-1,-1,-1,-1,-1,-1,-1,-1,-1,-1,-1,-1,-1,-1,-1,-1,-1,-1,-1,-1,-1,-1,-1,-1,-1,-1,-1,-1,-1,-1,-1,-1,-1,-1,-1,-1,-1,-1,-1,-1,-1,-1,-1,-1,-1,-1,-1,-1,-1,-1,-1,-1,-1,-1,-1,-1,-1,-1,-1,-1,-1,-1,-1,-1],"loss_changes":[1.37482110000000000e+07,8.51843600000000000e+06,2.44840375000000000e+05,1.53130400000000000e+06,7.99782750000000000e+05,1.79218312500000000e+05,1.00805625000000000e+05,5.97758000000000000e+05,3.98957000000000000e+05,1.58151500000000000e+05,1.29185625000000000e+05,9.45228750000000000e+04,1.51288203125000000e+04,6.34776250000000000e+04,1.06248593750000000e+04,4.55337000000000000e+05,1.55640000000000000e+05,1.13763750000000000e+05,4.77939000000000000e+05,1.89343437500000000e+04,2.85072750000000000e+05,2.70600000000000000e+04,1.84241875000000000e+04,1.27701171875000000e+04,2.53688750000000000e+04,1.64740468750000000e+04,3.09834179687500000e+03,5.30282500000000000e+04,1.32398125000000000e+04,3.71346875000000000e+03,2.33655468750000000e+03,1.66370750000000000e+05,4.04501000000000000e+05,9.70912500000000000e+03,2.27637500000000000e+05,3.61055625000000000e+04,5.05731875000000000e+04,2.82755000000000000e+04,1.26738500000000000e+05,1.04751562500000000e+04,2.47546484375000000e+03,7.09190000000000000e+04,8.19730000000000000e+04,5.28596875000000000e+04,1.03457187500000000e+04,9.19726562500000000e+03,1.39612304687500000e+03,4.29160546875000000e+03,4.56525000000000000e+03,1.90119375000000000e+04,4.35746875000000000e+03,1.28387109375000000e+03,4.48138281250000000e+03,2.76444531250000000e+03,8.65098144531250000e+02,4.59078906250000000e+03,9.09612500000000000e+03,4.27339843750000000e+03,3.07051875000000000e+04,6.18061718750000000e+03,1.47117968750000000e+03,1.39965625000000000e+03,3.72420898437500000e+02,0.00000000000000000e+00,0.00000000000000000e+00,0.00000000000000000e+00,0.00000000000000000e+00,0.00000000000000000e+00,0.00000000000000000e+00,0.00000000000000000e+00,0.00000000000000000e+00,0.00000000000000000e+00,0.00000000000000000e+00,0.00000000000000000e+00,0.00000000000000000e+00,0.00000000000000000e+00,0.00000000000000000e+00,0.00000000000000000e+00,0.00000000000000000e+00,0.00000000000000000e+00,0.00000000000000000e+00,0.00000000000000000e+00,0.00000000000000000e+00,0.00000000000000000e+00,0.00000000000000000e+00,0.00000000000000000e+00,0.00000000000000000e+00,0.00000000000000000e+00,0.00000000000000000e+00,0.00000000000000000e+00,0.00000000000000000e+00,0.00000000000000000e+00,0.00000000000000000e+00,0.00000000000000000e+00,0.00000000000000000e+00,0.00000000000000000e+00,0.00000000000000000e+00,0.00000000000000000e+00,0.00000000000000000e+00,0.00000000000000000e+00,0.00000000000000000e+00,0.00000000000000000e+00,0.00000000000000000e+00,0.00000000000000000e+00,0.00000000000000000e+00,0.00000000000000000e+00,0.00000000000000000e+00,0.00000000000000000e+00,0.00000000000000000e+00,0.00000000000000000e+00,0.00000000000000000e+00,0.00000000000000000e+00,0.00000000000000000e+00,0.00000000000000000e+00,0.00000000000000000e+00,0.00000000000000000e+00,0.00000000000000000e+00,0.00000000000000000e+00,0.00000000000000000e+00,0.00000000000000000e+00,0.00000000000000000e+00,0.00000000000000000e+00,0.00000000000000000e+00,0.00000000000000000e+00,0.00000000000000000e+00,0.00000000000000000e+00,0.00000000000000000e+00],"parents":[2147483647,0,0,1,1,2,2,3,3,4,4,5,5,6,6,7,7,8,8,9,9,10,10,11,11,12,12,13,13,14,14,15,15,16,16,17,17,18,18,19,19,20,20,21,21,22,22,23,23,24,24,25,25,26,26,27,27,28,28,29,29,30,30,31,31,32,32,33,33,34,34,35,35,36,36,37,37,38,38,39,39,40,40,41,41,42,42,43,43,44,44,45,45,46,46,47,47,48,48,49,49,50,50,51,51,52,52,53,53,54,54,55,55,56,56,57,57,58,58,59,59,60,60,61,61,62,62],"right_children":[2,4,6,8,10,12,14,16,18,20,22,24,26,28,30,32,34,36,38,40,42,44,46,48,50,52,54,56,58,60,62,64,66,68,70,72,74,76,78,80,82,84,86,88,90,92,94,96,98,100,102,104,106,108,110,112,114,116,118,120,122,124,126,-1,-1,-1,-1,-1,-1,-1,-1,-1,-1,-1,-1,-1,-1,-1,-1,-1,-1,-1,-1,-1,-1,-1,-1,-1,-1,-1,-1,-1,-1,-1,-1,-1,-1,-1,-1,-1,-1,-1,-1,-1,-1,-1,-1,-1,-1,-1,-1,-1,-1,-1,-1,-1,-1,-1,-1,-1,-1,-1,-1,-1,-1,-1,-1],"split_conditions":[2.01500000000000000e+02,4.36762511730194092e-01,6.00500000000000000e+02,1.45762503147125244e-01,6.98143959045410156e-01,4.84946995973587036e-01,5.95582008361816406e-01,1.25500000000000000e+02,1.16250000000000000e+03,1.33700000000000000e+03,8.52395534515380859e-01,6.51499264000000000e+08,7.43131995201110840e-01,1.40650000000000000e+03,7.63273477554321289e-01,6.51499264000000000e+08,1.00951206400000000e+09,1.06500000000000000e+02,1.88700000000000000e+03,7.55000000000000000e+01,2.41300000000000000e+03,1.01500000000000000e+02,9.27243471145629883e-01,4.35000000000000000e+01,4.01500000000000000e+02,6.87064128000000000e+08,8.51589977741241455e-01,6.51499264000000000e+08,6.51499264000000000e+08,1.61550000000000000e+03,9.00135517120361328e-01,2.95000000000000000e+01,1.27150000000000000e+03,5.13448256000000000e+08,1.75000000000000000e+02,7.55000000000000000e+01,7.55000000000000000e+01,1.37050000000000000e+03,5.74875100000000000e+06,4.49500000000000000e+02,1.50500000000000000e+02,1.63350000000000000e+03,5.12537479400634766e-01,1.23450000000000000e+03,1.06750000000000000e+03,1.01500000000000000e+02,2.00500000000000000e+02,1.50000000000000000e+00,3.54500000000000000e+02,2.26000000000000000e+02,3.71262490749359131e-01,7.42591977119445801e-01,1.74600000000000000e+03,7.51276160000000000e+08,9.12231504917144775e-01,1.00500000000000000e+02,1.05050000000000000e+03,1.45500000000000000e+02,3.72400000000000000e+03,1.61200000000000000e+03,7.16148224000000000e+08,1.81450000000000000e+03,6.03500000000000000e+02,1.05048351287841797e+01,6.06506252288818359e+00,1.33688049316406250e+01,8.78211688995361328e+00,2.57373142242431641e+00,4.17582845687866211e+00,7.95761060714721680e+00,5.46903944015502930e+00,6.53094244003295898e+00,1.92341899871826172e+00,3.14491844177246094e+00,1.37281560897827148e+00,8.34028244018554688e+00,6.82457494735717773e+00,3.96579051017761230e+00,5.34778738021850586e+00,2.30203676223754883e+00,1.67886734008789062e+00,1.25625646114349365e+00,6.12181484699249268e-01,5.49823474884033203e+00,3.79821705818176270e+00,3.40744066238403320e+00,2.11696219444274902e+00,1.26994144916534424e+00,2.24547672271728516e+00,3.93465876579284668e-01,1.31745886802673340e+00,1.04595267772674561e+00,6.83643996715545654e-01,4.22154277563095093e-01,1.26948857307434082e+00,5.35624885559082031e+00,1.86901283264160156e+00,1.13870656490325928e+00,6.72283828258514404e-01,7.74230051040649414e+00,2.73263621330261230e+00,2.01996588706970215e+00,1.35256016254425049e+00,4.48258489370346069e-01,2.26018619537353516e+00,1.74574816226959229e+00,1.05012333393096924e+00,3.62217247486114502e-01,7.35677182674407959e-01,3.55562865734100342e-01,1.74097359180450439e-01,7.47392594814300537e-01,3.78722697496414185e-01,1.22613966464996338e+00,8.74611318111419678e-01,4.31897252798080444e-01,2.17599511146545410e-01,5.96601247787475586e-01,3.62729310989379883e-01,2.46166989207267761e-01,5.62385618686676025e-01,1.89422041177749634e-01,2.92823880910873413e-01,2.64740169048309326e-01,1.94370016455650330e-01,4.05815988779067993e-01,1.41527011990547180e-01],"split_indices":[14,10,14,10,10,10,10,14,0,0,10,6,10,14,10,6,6,0,0,14,0,14,10,0,14,6,10,6,6,14,10,0,0,6,14,14,14,0,16,0,14,0,10,0,0,14,14,0,14,14,10,10,0,6,10,0,14,0,14,0,6,14,14,0,0,0,0,0,0,0,0,0,0,0,0,0,0,0,0,0,0,0,0,0,0,0,0,0,0,0,0,0,0,0,0,0,0,0,0,0,0,0,0,0,0,0,0,0,0,0,0,0,0,0,0,0,0,0,0,0,0,0,0,0,0,0,0],"sum_hessian":[9.96020000000000000e+04,2.23760000000000000e+04,7.72260000000000000e+04,8.29800000000000000e+03,1.40780000000000000e+04,5.40000000000000000e+03,7.18260000000000000e+04,3.20300000000000000e+03,5.09500000000000000e+03,5.19300000000000000e+03,8.88500000000000000e+03,2.22000000000000000e+03,3.18000000000000000e+03,3.60480000000000000e+04,3.57780000000000000e+04,1.45300000000000000e+03,1.75000000000000000e+03,1.32600000000000000e+03,3.76900000000000000e+03,1.38500000000000000e+03,3.80800000000000000e+03,4.66700000000000000e+03,4.21800000000000000e+03,9.82000000000000000e+02,1.23800000000000000e+03,1.31200000000000000e+03,1.86800000000000000e+03,5.48500000000000000e+03,3.05630000000000000e+04,1.28150000000000000e+04,2.29630000000000000e+04,6.03000000000000000e+02,8.50000000000000000e+02,2.38000000000000000e+02,1.51200000000000000e+03,1.41000000000000000e+02,1.18500000000000000e+03,9.78000000000000000e+02,2.79100000000000000e+03,1.12900000000000000e+03,2.56000000000000000e+02,1.19600000000000000e+03,2.61200000000000000e+03,2.23300000000000000e+03,2.43400000000000000e+03,2.84800000000000000e+03,1.37000000000000000e+03,1.11000000000000000e+02,8.71000000000000000e+02,5.74000000000000000e+02,6.64000000000000000e+02,6.38000000000000000e+02,6.74000000000000000e+02,8.08000000000000000e+02,1.06000000000000000e+03,2.49000000000000000e+03,2.99500000000000000e+03,5.28700000000000000e+03,2.52760000000000000e+04,2.48400000000000000e+03,1.03310000000000000e+04,1.54360000000000000e+04,7.52700000000000000e+03,1.04000000000000000e+02,4.99000000000000000e+02,3.10000000000000000e+02,5.40000000000000000e+02,5.60000000000000000e+01,1.82000000000000000e+02,6.79000000000000000e+02,8.33000000000000000e+02,1.20000000000000000e+02,2.10000000000000000e+01,9.90000000000000000e+02,1.95000000000000000e+02,1.76000000000000000e+02,8.02000000000000000e+02,1.65400000000000000e+03,1.13700000000000000e+03,5.05000000000000000e+02,6.24000000000000000e+02,1.53000000000000000e+02,1.03000000000000000e+02,3.59000000000000000e+02,8.37000000000000000e+02,6.64000000000000000e+02,1.94800000000000000e+03,1.13000000000000000e+03,1.10300000000000000e+03,1.29000000000000000e+02,2.30500000000000000e+03,1.55400000000000000e+03,1.29400000000000000e+03,1.35100000000000000e+03,1.90000000000000000e+01,3.00000000000000000e+00,1.08000000000000000e+02,3.70000000000000000e+02,5.01000000000000000e+02,7.00000000000000000e+00,5.67000000000000000e+02,5.33000000000000000e+02,1.31000000000000000e+02,6.35000000000000000e+02,3.00000000000000000e+00,1.14000000000000000e+02,5.60000000000000000e+02,4.47000000000000000e+02,3.61000000000000000e+02,5.55000000000000000e+02,5.05000000000000000e+02,4.04000000000000000e+02,2.08600000000000000e+03,1.60700000000000000e+03,1.38800000000000000e+03,1.20700000000000000e+03,4.08000000000000000e+03,8.42500000000000000e+03,1.68510000000000000e+04,1.17700000000000000e+03,1.30700000000000000e+03,1.64400000000000000e+03,8.68700000000000000e+03,3.74200000000000000e+03,1.16940000000000000e+04,5.30000000000000000e+01,7.47400000000000000e+03],"tree_param":{"num_deleted":"0","num_feature":"21","num_nodes":"127","size_leaf_vector":"0"}},{"base_weights":[9.22945213317871094e+00,2.87049331665039062e+01,3.56314373016357422e+00,2.28928947448730469e+01,5.80589675903320312e+01,8.14902782440185547e+00,3.02031874656677246e+00,6.81012954711914062e+01,2.18094711303710938e+01,5.01067085266113281e+01,8.29259796142578125e+01,6.96277427673339844e+00,1.84160022735595703e+01,4.31307458877563477e+00,2.76013517379760742e+00,7.46593017578125000e+01,3.01061744689941406e+01,1.31392593383789062e+01,2.51832618713378906e+01,4.46251564025878906e+01,5.90122222900390625e+01,9.85526885986328125e+01,3.98674507141113281e+01,4.21772575378417969e+00,9.43314838409423828e+00,2.53032951354980469e+01,1.37561826705932617e+01,2.34965658187866211e+00,5.73463010787963867e+00,1.87231528759002686e+00,2.92726707458496094e+00,8.89194869995117188e+01,5.91199836730957031e+01,4.74966316223144531e+01,2.49444293975830078e+01,2.36139583587646484e+01,9.56832695007324219e+00,6.35983963012695312e+01,1.99239273071289062e+01,5.87233886718750000e+01,4.27676506042480469e+01,6.68885269165039062e+01,5.03268280029296875e+01,1.27626930236816406e+02,8.42853317260742188e+01,1.05570697784423828e+01,4.04461517333984375e+01,1.04048290252685547e+01,2.94522976875305176e+00,1.55133924484252930e+01,7.60609054565429688e+00,1.91516876220703125e+01,2.88070297241210938e+01,1.08147611618041992e+01,1.64645824432373047e+01,5.19538259506225586e+00,1.78696584701538086e+00,5.21234607696533203e+00,8.30346107482910156e+00,3.36965489387512207e+00,1.52664637565612793e+00,5.62418889999389648e+00,2.63156247138977051e+00,1.11527236938476562e+02,8.43795852661132812e+01,3.86773796081542969e+01,6.79688491821289062e+01,5.70909652709960938e+01,2.51890201568603516e+01,3.09832744598388672e+01,1.03337383270263672e+01,2.61203002929687500e+01,1.00204763412475586e+01,1.24588069915771484e+01,6.52359914779663086e+00,9.78928146362304688e+01,5.81620674133300781e+01,2.22635040283203125e+01,9.81282138824462891e+00,6.57849807739257812e+01,2.47265300750732422e+01,3.28094482421875000e+01,4.50285415649414062e+01,6.79859313964843750e+01,3.40787925720214844e+01,5.29733581542968750e+01,3.60414276123046875e+01,1.29041137695312500e+02,8.10765533447265625e+01,6.41065216064453125e+01,8.50878601074218750e+01,4.22407150268554688e+01,3.14508819580078125e+01,4.95453033447265625e+01,1.01203889846801758e+01,4.40758848190307617e+00,2.44936680793762207e+00,8.22015571594238281e+00,1.93213272094726562e+01,5.51029109954833984e+00,9.08934783935546875e+00,2.12221469879150391e+01,8.39942264556884766e+00,3.26144981384277344e+01,2.55527229309082031e+01,6.97069644927978516e+00,1.21070976257324219e+01,1.69532184600830078e+01,-1.10772049427032471e+00,7.71508169174194336e+00,4.30130672454833984e+00,2.30574989318847656e+00,1.27595210075378418e+00,7.49206256866455078e+00,4.31719112396240234e+00,6.49427461624145508e+00,1.00259895324707031e+01,5.06177997589111328e+00,3.04988431930541992e+00,1.43915712833404541e+00,3.69110512733459473e+00,6.26375913619995117e+00,3.18038868904113770e+00,3.56185460090637207e+00,2.41018486022949219e+00],"default_left":[true,true,true,true,true,true,true,true,true,true,true,true,true,true,true,true,true,true,true,true,true,true,true,true,true,true,true,true,true,true,true,true,true,true,true,true,true,true,true,true,true,true,true,true,true,false,true,true,true,true,true,true,true,true,true,true,true,true,true,true,true,true,true,false,false,false,false,false,false,false,false,false,false,false,false,false,false,false,false,false,false,false,false,false,false,false,false,false,false,false,false,false,false,false,false,false,false,false,false,false,false,false,false,false,false,false,false,false,false,false,false,false,false,false,false,false,false,false,false,false,false,false,false,false,false],"id":2,"leaf_child_counts":[0,0,0,0,0,0,0,0,0,0,0,0,0,0,0,0,0,0,0,0,0,0,0,0,0,0,0,0,0,0,0,0,0,0,0,0,0,0,0,0,0,0,0,0,0,0,0,0,0,0,0,0,0,0,0,0,0,0,0,0,0,0,0,0,0,0,0,0,0,0,0,0,0,0,0,0,0,0,0,0,0,0,0,0,0,0,0,0,0,0,0,0,0,0,0,0,0,0,0,0,0,0,0,0,0,0,0,0,0,0,0,0,0,0,0,0,0,0,0,0,0,0,0,0,0],"left_children":[1,3,5,7,9,11,13,15,17,19,21,23,25,27,29,31,33,35,37,39,41,43,45,47,49,51,53,55,57,59,61,63,65,67,69,71,73,75,77,79,81,83,85,87,89,-1,91,93,95,97,99,101,103,105,107,109,111,113,115,117,119,121,123,-1,-1,-1,-1,-1,-1,-1,-1,-1,-1,-1,-1,-1,-1,-1,-1,-1,-1,-1,-1,-1,-1,-1,-1,-1,-1,-1,-1,-1,-1,-1,-1,-1,-1,-1,-1,-1,-1,-1,-1,-1,-1,-1,-1,-1,-1,-1,-1,-1,-1,-1,-1,-1,-1,-1,-1,-1,-1,-1,-1,-1,-1],"loss_changes":[1.09636860000000000e+07,3.81872800000000000e+06,1.91556812500000000e+05,9.14046000000000000e+05,7.27516000000000000e+05,9.90716250000000000e+04,2.31350000000000000e+04,1.06640500000000000e+05,5.33684000000000000e+05,1.34344000000000000e+05,5.98283500000000000e+05,4.94840312500000000e+04,2.67067812500000000e+04,3.21624062500000000e+04,8.49540625000000000e+03,7.71760000000000000e+04,4.73971875000000000e+03,1.91135250000000000e+05,2.65371500000000000e+06,4.30810000000000000e+04,6.95575000000000000e+04,2.61360000000000000e+05,3.64387500000000000e+03,2.72180312500000000e+04,4.25737500000000000e+04,6.75496875000000000e+03,3.84504687500000000e+03,7.74563671875000000e+03,8.92704687500000000e+03,4.69399609375000000e+03,3.84338750000000000e+04,1.02956250000000000e+04,3.01129375000000000e+04,1.55831054687500000e+03,4.35610937500000000e+03,4.40291250000000000e+04,3.35110937500000000e+04,2.89247500000000000e+05,2.73241500000000000e+05,4.63877500000000000e+04,3.32397500000000000e+04,1.77022500000000000e+04,1.74100000000000000e+04,3.62575000000000000e+03,1.71925000000000000e+03,0.00000000000000000e+00,2.46500000000000000e+03,6.06714062500000000e+03,2.07177539062500000e+03,2.44750937500000000e+04,9.14206250000000000e+03,2.62677343750000000e+03,1.81820312500000000e+03,1.13272265625000000e+03,2.25984375000000000e+03,1.76680468750000000e+03,1.06941015625000000e+03,1.13119062500000000e+04,3.45015625000000000e+03,9.05501953125000000e+02,1.39183789062500000e+03,7.42456250000000000e+03,8.93975000000000000e+03,0.00000000000000000e+00,0.00000000000000000e+00,0.00000000000000000e+00,0.00000000000000000e+00,0.00000000000000000e+00,0.00000000000000000e+00,0.00000000000000000e+00,0.00000000000000000e+00,0.00000000000000000e+00,0.00000000000000000e+00,0.00000000000000000e+00,0.00000000000000000e+00,0.00000000000000000e+00,0.00000000000000000e+00,0.00000000000000000e+00,0.00000000000000000e+00,0.00000000000000000e+00,0.00000000000000000e+00,0.00000000000000000e+00,0.00000000000000000e+00,0.00000000000000000e+00,0.00000000000000000e+00,0.00000000000000000e+00,0.00000000000000000e+00,0.00000000000000000e+00,0.00000000000000000e+00,0.00000000000000000e+00,0.00000000000000000e+00,0.00000000000000000e+00,0.00000000000000000e+00,0.00000000000000000e+00,0.00000000000000000e+00,0.00000000000000000e+00,0.00000000000000000e+00,0.00000000000000000e+00,0.00000000000000000e+00,0.00000000000000000e+00,0.00000000000000000e+00,0.00000000000000000e+00,0.00000000000000000e+00,0.00000000000000000e+00,0.00000000000000000e+00,0.00000000000000000e+00,0.00000000000000000e+00,0.00000000000000000e+00,0.00000000000000000e+00,0.00000000000000000e+00,0.00000000000000000e+00,0.00000000000000000e+00,0.00000000000000000e+00,0.00000000000000000e+00,0.00000000000000000e+00,0.00000000000000000e+00,0.00000000000000000e+00,0.00000000000000000e+00,0.00000000000000000e+00,0.00000000000000000e+00,0.00000000000000000e+00,0.00000000000000000e+00,0.00000000000000000e+00,0.00000000000000000e+00,0.00000000000000000e+00],"parents":[2147483647,0,0,1,1,2,2,3,3,4,4,5,5,6,6,7,7,8,8,9,9,10,10,11,11,12,12,13,13,14,14,15,15,16,16,17,17,18,18,19,19,20,20,21,21,22,22,23,23,24,24,25,25,26,26,27,27,28,28,29,29,30,30,31,31,32,32,33,33,34,34,35,35,36,36,37,37,38,38,39,39,40,40,41,41,42,42,43,43,44,44,46,46,47,47,48,48,49,49,50,50,51,51,52,52,53,53,54,54,55,55,56,56,57,57,58,58,59,59,60,60,61,61,62,62],"right_children":[2,4,6,8,10,12,14,16,18,20,22,24,26,28,30,32,34,36,38,40,42,44,46,48,50,52,54,56,58,60,62,64,66,68,70,72,74,76,78,80,82,84,86,88,90,-1,92,94,96,98,100,102,104,106,108,110,112,114,116,118,120,122,124,-1,-1,-1,-1,-1,-1,-1,-1,-1,-1,-1,-1,-1,-1,-1,-1,-1,-1,-1,-1,-1,-1,-1,-1,-1,-1,-1,-1,-1,-1,-1,-1,-1,-1,-1,-1,-1,-1,-1,-1,-1,-1,-1,-1,-1,-1,-1,-1,-1,-1,-1,-1,-1,-1,-1,-1,-1,-1,-1,-1,-1,-1],"split_conditions":[2.01500000000000000e+02,5.74875100000000000e+06,8.01500000000000000e+02,1.02500000000000000e+02,5.05000000000000000e+01,8.29882750000000000e+06,1.65050000000000000e+03,7.55000000000000000e+01,1.24950000000000000e+03,1.43453450000000000e+07,1.75500000000000000e+02,5.00000000000000000e-01,4.50500000000000000e+02,5.00000000000000000e-01,1.25050000000000000e+03,5.65000000000000000e+01,2.35000000000000000e+01,4.03500000000000000e+02,1.68550000000000000e+03,4.66000000000000000e+02,3.55250000000000000e+03,7.55000000000000000e+01,6.84500000000000000e+02,2.11500000000000000e+02,1.71250000000000000e+03,2.24600000000000000e+03,8.00000000000000000e+00,2.01500000000000000e+02,8.29882750000000000e+06,2.35500000000000000e+02,1.65550000000000000e+03,8.50000000000000000e+00,5.79546500000000000e+05,3.85000000000000000e+01,1.52500000000000000e+02,7.55000000000000000e+01,8.47500000000000000e+02,1.31650000000000000e+03,4.35850000000000000e+03,7.55000000000000000e+01,1.15450000000000000e+03,1.50500000000000000e+02,4.80000000000000000e+03,1.18600000000000000e+03,1.05600000000000000e+03,1.05570697784423828e+00,4.79300000000000000e+03,1.50000000000000000e+00,3.51500000000000000e+02,1.24000000000000000e+03,1.77774400000000000e+06,1.85650000000000000e+03,3.36750000000000000e+03,1.80000000000000000e+01,4.85250000000000000e+03,5.05000000000000000e+01,7.18500000000000000e+02,1.80050000000000000e+03,2.49700000000000000e+03,3.65000000000000000e+01,1.50000000000000000e+00,3.60738200000000000e+06,3.00050000000000000e+03,1.11527242660522461e+01,8.43795871734619141e+00,3.86773800849914551e+00,6.79688501358032227e+00,5.70909643173217773e+00,2.51890206336975098e+00,3.09832739830017090e+00,1.03337383270263672e+00,2.61203002929687500e+00,1.00204765796661377e+00,1.24588072299957275e+00,6.52359902858734131e-01,9.78928184509277344e+00,5.81620693206787109e+00,2.22635054588317871e+00,9.81282174587249756e-01,6.57849836349487305e+00,2.47265315055847168e+00,3.28094482421875000e+00,4.50285434722900391e+00,6.79859304428100586e+00,3.40787935256958008e+00,5.29733610153198242e+00,3.60414290428161621e+00,1.29041137695312500e+01,8.10765552520751953e+00,6.41065216064453125e+00,8.50878620147705078e+00,4.22407150268554688e+00,3.14508819580078125e+00,4.95453023910522461e+00,1.01203894615173340e+00,4.40758854150772095e-01,2.44936689734458923e-01,8.22015583515167236e-01,1.93213272094726562e+00,5.51029145717620850e-01,9.08934772014617920e-01,2.12221479415893555e+00,8.39942276477813721e-01,3.26144981384277344e+00,2.55527234077453613e+00,6.97069644927978516e-01,1.21070981025695801e+00,1.69532191753387451e+00,-1.10772050917148590e-01,7.71508157253265381e-01,4.30130690336227417e-01,2.30574995279312134e-01,1.27595216035842896e-01,7.49206244945526123e-01,4.31719124317169189e-01,6.49427473545074463e-01,1.00259900093078613e+00,5.06178021430969238e-01,3.04988443851470947e-01,1.43915712833404541e-01,3.69110524654388428e-01,6.26375913619995117e-01,3.18038880825042725e-01,3.56185466051101685e-01,2.41018489003181458e-01],"split_indices":[14,16,14,0,1,16,14,14,0,16,14,9,14,9,0,0,0,0,0,0,0,14,0,0,0,0,8,0,16,0,0,0,16,1,14,14,0,0,0,14,0,14,0,0,0,0,0,0,14,0,16,0,0,1,0,0,0,0,0,0,8,16,14,0,0,0,0,0,0,0,0,0,0,0,0,0,0,0,0,0,0,0,0,0,0,0,0,0,0,0,0,0,0,0,0,0,0,0,0,0,0,0,0,0,0,0,0,0,0,0,0,0,0,0,0,0,0,0,0,0,0,0,0,0,0],"sum_hessian":[9.93500000000000000e+04,2.23900000000000000e+04,7.69600000000000000e+04,1.86910000000000000e+04,3.69900000000000000e+03,8.14400000000000000e+03,6.88160000000000000e+04,4.36000000000000000e+02,1.82550000000000000e+04,2.80500000000000000e+03,8.94000000000000000e+02,7.30200000000000000e+03,8.42000000000000000e+02,1.15270000000000000e+04,5.72890000000000000e+04,3.71000000000000000e+02,6.50000000000000000e+01,5.11500000000000000e+03,1.31400000000000000e+04,1.74000000000000000e+03,1.06500000000000000e+03,6.55000000000000000e+02,2.39000000000000000e+02,3.46000000000000000e+03,3.84200000000000000e+03,3.38000000000000000e+02,5.04000000000000000e+02,4.84200000000000000e+03,6.68500000000000000e+03,9.07800000000000000e+03,4.82110000000000000e+04,1.91000000000000000e+02,1.80000000000000000e+02,1.30000000000000000e+01,5.20000000000000000e+01,1.29900000000000000e+03,3.81600000000000000e+03,1.58100000000000000e+03,1.15590000000000000e+04,1.99000000000000000e+02,1.54100000000000000e+03,5.55000000000000000e+02,5.10000000000000000e+02,2.13000000000000000e+02,4.42000000000000000e+02,5.00000000000000000e+00,2.34000000000000000e+02,5.89000000000000000e+02,2.87100000000000000e+03,8.86000000000000000e+02,2.95600000000000000e+03,1.25000000000000000e+02,2.13000000000000000e+02,2.44000000000000000e+02,2.60000000000000000e+02,7.98000000000000000e+02,4.04400000000000000e+03,5.55800000000000000e+03,1.12700000000000000e+03,1.70100000000000000e+03,7.37700000000000000e+03,4.76200000000000000e+03,4.34490000000000000e+04,2.80000000000000000e+01,1.63000000000000000e+02,5.60000000000000000e+01,1.24000000000000000e+02,8.00000000000000000e+00,5.00000000000000000e+00,3.60000000000000000e+01,1.60000000000000000e+01,1.09600000000000000e+03,2.03000000000000000e+02,1.95600000000000000e+03,1.86000000000000000e+03,2.14000000000000000e+02,1.36700000000000000e+03,9.38600000000000000e+03,2.17300000000000000e+03,1.64000000000000000e+02,3.50000000000000000e+01,2.88000000000000000e+02,1.25300000000000000e+03,5.36000000000000000e+02,1.90000000000000000e+01,4.28000000000000000e+02,8.20000000000000000e+01,2.05000000000000000e+02,8.00000000000000000e+00,2.00000000000000000e+01,4.22000000000000000e+02,1.92000000000000000e+02,4.20000000000000000e+01,3.00000000000000000e+00,5.86000000000000000e+02,7.25000000000000000e+02,2.14600000000000000e+03,3.05000000000000000e+02,5.81000000000000000e+02,1.22700000000000000e+03,1.72900000000000000e+03,1.04000000000000000e+02,2.10000000000000000e+01,9.40000000000000000e+01,1.19000000000000000e+02,6.30000000000000000e+01,1.81000000000000000e+02,2.53000000000000000e+02,7.00000000000000000e+00,2.07000000000000000e+02,5.91000000000000000e+02,2.00500000000000000e+03,2.03900000000000000e+03,1.56500000000000000e+03,3.99300000000000000e+03,5.52000000000000000e+02,5.75000000000000000e+02,2.68000000000000000e+02,1.43300000000000000e+03,7.09200000000000000e+03,2.85000000000000000e+02,3.77300000000000000e+03,9.89000000000000000e+02,8.34900000000000000e+03,3.51000000000000000e+04],"tree_param":{"num_deleted":"0","num_feature":"21","num_nodes":"125","size_leaf_vector":"0"}},{"base_weights":[8.34990882873535156e+00,2.59848690032958984e+01,3.21970987319946289e+00,4.80126075744628906e+01,1.32098674774169922e+01,7.30113840103149414e+00,2.72152185440063477e+00,6.24690055847167969e+01,3.87345542907714844e+01,2.27480621337890625e+01,8.99205684661865234e+00,1.24214344024658203e+01,4.08897399902343750e+00,3.79043436050415039e+00,1.85872435569763184e+00,7.58819732666015625e+01,5.13727989196777344e+01,2.68334808349609375e+01,4.33798866271972656e+01,1.40884151458740234e+01,2.59831123352050781e+01,1.23648471832275391e+01,5.11885881423950195e+00,7.17913389205932617e+00,1.65457382202148438e+01,2.40390801429748535e+00,5.68209838867187500e+00,5.39313077926635742e+00,3.28660440444946289e+00,2.44958281517028809e+00,1.41815507411956787e+00,5.66349983215332031e+01,8.98602676391601562e+01,3.60664176940917969e+01,5.40582542419433594e+01,1.12758378982543945e+01,2.96847381591796875e+01,5.93252143859863281e+01,3.70799407958984375e+01,1.53281908035278320e+01,5.81240653991699219e+00,3.54675521850585938e+01,2.13578224182128906e+01,1.52625951766967773e+01,9.82723522186279297e+00,6.30968046188354492e+00,2.35496330261230469e+00,1.08849859237670898e+01,5.80035305023193359e+00,2.26364459991455078e+01,1.36335506439208984e+01,3.32265901565551758e+00,1.16663074493408203e+00,8.58513736724853516e+00,3.78006005287170410e+00,3.26467180252075195e+00,7.68903446197509766e+00,4.07815217971801758e+00,2.61137533187866211e+00,1.22665703296661377e+00,2.58261275291442871e+00,1.60293161869049072e+00,9.78987097740173340e-01,7.67323913574218750e+01,4.58454933166503906e+01,1.16403488159179688e+02,7.99007034301757812e+01,4.61541938781738281e+01,3.00982952117919922e+01,6.40385437011718750e+01,4.61760025024414062e+01,6.09931659698486328e+00,2.06215648651123047e+01,3.33340263366699219e+01,1.79127807617187500e+01,6.51351928710937500e+01,5.44276771545410156e+01,4.44293212890625000e+01,3.19865188598632812e+01,1.50406579971313477e+01,5.01804618835449219e+01,4.99569892883300781e+00,1.72367687225341797e+01,3.10389232635498047e+01,4.27536354064941406e+01,2.58349342346191406e+01,1.71970996856689453e+01,1.07066802978515625e+01,2.02657146453857422e+01,1.13689937591552734e+01,7.83102989196777344e+00,7.75703001022338867e+00,4.63406705856323242e+00,3.64879298210144043e+00,1.14119112491607666e+00,2.01935997009277344e+01,8.67919063568115234e+00,7.71558809280395508e+00,4.11925745010375977e+00,2.59644279479980469e+01,2.01127090454101562e+01,1.54327249526977539e+01,1.11809597015380859e+01,3.20806550979614258e+00,1.47411222457885742e+01,9.58484888076782227e-01,2.31768393516540527e+00,1.34019422531127930e+01,7.70115661621093750e+00,4.38945388793945312e+00,1.66715025901794434e+00,4.68945789337158203e+00,2.64700102806091309e+00,1.00699071884155273e+01,7.14457368850708008e+00,5.02098798751831055e+00,3.50049042701721191e+00,3.17759513854980469e+00,2.17313003540039062e+00,9.22624409198760986e-01,1.69779336452484131e+00,3.60751366615295410e+00,2.32201695442199707e+00,1.45300984382629395e+00,1.98693609237670898e+00,9.03211951255798340e-01,1.32225894927978516e+00],"default_left":[true,true,true,true,true,true,true,true,true,true,true,true,true,true,true,true,true,true,true,true,true,true,true,true,true,true,true,true,true,true,true,true,true,true,true,true,true,true,true,true,true,true,true,true,true,true,true,true,true,true,true,true,true,true,true,true,true,true,true,true,true,true,true,false,false,false,false,false,false,false,false,false,false,false,false,false,false,false,false,false,false,false,false,false,false,false,false,false,false,false,false,false,false,false,false,false,false,false,false,false,false,false,false,false,false,false,false,false,false,false,false,false,false,false,false,false,false,false,false,false,false,false,false,false,false,false,false],"id":3,"leaf_child_counts":[0,0,0,0,0,0,0,0,0,0,0,0,0,0,0,0,0,0,0,0,0,0,0,0,0,0,0,0,0,0,0,0,0,0,0,0,0,0,0,0,0,0,0,0,0,0,0,0,0,0,0,0,0,0,0,0,0,0,0,0,0,0,0,0,0,0,0,0,0,0,0,0,0,0,0,0,0,0,0,0,0,0,0,0,0,0,0,0,0,0,0,0,0,0,0,0,0,0,0,0,0,0,0,0,0,0,0,0,0,0,0,0,0,0,0,0,0,0,0,0,0,0,0,0,0,0,0],"left_children":[1,3,5,7,9,11,13,15,17,19,21,23,25,27,29,31,33,35,37,39,41,43,45,47,49,51,53,55,57,59,61,63,65,67,69,71,73,75,77,79,81,83,85,87,89,91,93,95,97,99,101,103,105,107,109,111,113,115,117,119,121,123,125,-1,-1,-1,-1,-1,-1,-1,-1,-1,-1,-1,-1,-1,-1,-1,-1,-1,-1,-1,-1,-1,-1,-1,-1,-1,-1,-1,-1,-1,-1,-1,-1,-1,-1,-1,-1,-1,-1,-1,-1,-1,-1,-1,-1,-1,-1,-1,-1,-1,-1,-1,-1,-1,-1,-1,-1,-1,-1,-1,-1,-1,-1,-1,-1],"loss_changes":[8.99715300000000000e+06,6.30592000000000000e+06,1.56624937500000000e+05,1.10091000000000000e+06,5.70502250000000000e+05,1.37777031250000000e+05,6.33149687500000000e+04,4.74451000000000000e+05,2.75977000000000000e+05,1.21468750000000000e+05,1.28455250000000000e+05,6.97165000000000000e+04,1.38143046875000000e+04,2.47446875000000000e+04,9.88715625000000000e+03,3.85826000000000000e+05,7.04765000000000000e+04,6.22112500000000000e+04,3.59839000000000000e+05,1.20694687500000000e+04,1.38085500000000000e+05,3.85140000000000000e+04,1.50626171875000000e+04,7.21287500000000000e+03,3.17426562500000000e+04,2.84368261718750000e+03,1.45834609375000000e+04,3.58093281250000000e+04,1.24607968750000000e+04,2.63689843750000000e+03,1.76485937500000000e+03,1.29622500000000000e+05,2.12761000000000000e+05,1.46253750000000000e+04,1.14807500000000000e+05,1.05174570312500000e+04,5.05673750000000000e+04,2.54500000000000000e+04,9.53820000000000000e+04,9.56706250000000000e+03,1.36942724609375000e+03,3.21020000000000000e+04,3.92334375000000000e+04,5.56961875000000000e+04,8.54690625000000000e+03,7.72711718750000000e+03,2.16457812500000000e+03,7.72989843750000000e+03,3.31669921875000000e+03,4.37437500000000000e+03,5.23292187500000000e+03,1.83299707031250000e+03,2.53896972656250000e+02,4.35487500000000000e+03,2.05412109375000000e+03,3.33793359375000000e+03,4.50007812500000000e+03,5.83187500000000000e+03,3.11846093750000000e+03,2.26759521484375000e+02,3.90040625000000000e+03,8.79097656250000000e+02,1.66553710937500000e+02,0.00000000000000000e+00,0.00000000000000000e+00,0.00000000000000000e+00,0.00000000000000000e+00,0.00000000000000000e+00,0.00000000000000000e+00,0.00000000000000000e+00,0.00000000000000000e+00,0.00000000000000000e+00,0.00000000000000000e+00,0.00000000000000000e+00,0.00000000000000000e+00,0.00000000000000000e+00,0.00000000000000000e+00,0.00000000000000000e+00,0.00000000000000000e+00,0.00000000000000000e+00,0.00000000000000000e+00,0.00000000000000000e+00,0.00000000000000000e+00,0.00000000000000000e+00,0.00000000000000000e+00,0.00000000000000000e+00,0.00000000000000000e+00,0.00000000000000000e+00,0.00000000000000000e+00,0.00000000000000000e+00,0.00000000000000000e+00,0.00000000000000000e+00,0.00000000000000000e+00,0.00000000000000000e+00,0.00000000000000000e+00,0.00000000000000000e+00,0.00000000000000000e+00,0.00000000000000000e+00,0.00000000000000000e+00,0.00000000000000000e+00,0.00000000000000000e+00,0.00000000000000000e+00,0.00000000000000000e+00,0.00000000000000000e+00,0.00000000000000000e+00,0.00000000000000000e+00,0.00000000000000000e+00,0.00000000000000000e+00,0.00000000000000000e+00,0.00000000000000000e+00,0.00000000000000000e+00,0.00000000000000000e+00,0.00000000000000000e+00,0.00000000000000000e+00,0.00000000000000000e+00,0.00000000000000000e+00,0.00000000000000000e+00,0.00000000000000000e+00,0.00000000000000000e+00,0.00000000000000000e+00,0.00000000000000000e+00,0.00000000000000000e+00,0.00000000000000000e+00,0.00000000000000000e+00,0.00000000000000000e+00,0.00000000000000000e+00,0.00000000000000000e+00],"parents":[2147483647,0,0,1,1,2,2,3,3,4,4,5,5,6,6,7,7,8,8,9,9,10,10,11,11,12,12,13,13,14,14,15,15,16,16,17,17,18,18,19,19,20,20,21,21,22,22,23,23,24,24,25,25,26,26,27,27,28,28,29,29,30,30,31,31,32,32,33,33,34,34,35,35,36,36,37,37,38,38,39,39,40,40,41,41,42,42,43,43,44,44,45,45,46,46,47,47,48,48,49,49,50,50,51,51,52,52,53,53,54,54,55,55,56,56,57,57,58,58,59,59,60,60,61,61,62,62],"right_children":[2,4,6,8,10,12,14,16,18,20,22,24,26,28,30,32,34,36,38,40,42,44,46,48,50,52,54,56,58,60,62,64,66,68,70,72,74,76,78,80,82,84,86,88,90,92,94,96,98,100,102,104,106,108,110,112,114,116,118,120,122,124,126,-1,-1,-1,-1,-1,-1,-1,-1,-1,-1,-1,-1,-1,-1,-1,-1,-1,-1,-1,-1,-1,-1,-1,-1,-1,-1,-1,-1,-1,-1,-1,-1,-1,-1,-1,-1,-1,-1,-1,-1,-1,-1,-1,-1,-1,-1,-1,-1,-1,-1,-1,-1,-1,-1,-1,-1,-1,-1,-1,-1,-1,-1,-1,-1],"split_conditions":[2.02500000000000000e+02,4.36751991510391235e-01,8.05500000000000000e+02,1.49000495672225952e-01,6.60401463508605957e-01,4.63329493999481201e-01,5.29447495937347412e-01,1.25500000000000000e+02,6.52107648000000000e+08,4.64554112000000000e+08,8.43276977539062500e-01,6.51499264000000000e+08,4.64554112000000000e+08,2.01150000000000000e+03,7.64551520347595215e-01,6.51499264000000000e+08,1.01295961600000000e+09,2.38870784000000000e+08,1.25500000000000000e+02,1.26000000000000000e+02,8.01227776000000000e+08,1.01500000000000000e+02,9.27243471145629883e-01,3.78000000000000000e+02,4.03500000000000000e+02,8.18796038627624512e-01,7.23888993263244629e-01,6.87064128000000000e+08,2.91936000000000000e+06,2.50879376000000000e+08,9.05809521675109863e-01,1.31909250000000000e+06,5.05000000000000000e+01,2.03732150000000000e+06,1.75000000000000000e+02,3.56550008058547974e-01,7.55000000000000000e+01,2.90184497833251953e-01,2.59361982345581055e-01,6.59366488456726074e-01,6.53565526008605957e-01,4.45000000000000000e+01,5.45022964477539062e-01,7.30503040000000000e+08,7.73209512233734131e-01,1.01500000000000000e+02,1.00500000000000000e+02,9.82085019350051880e-02,2.03453004360198975e-01,1.42670005559921265e-01,2.17316001653671265e-01,8.17065477371215820e-01,3.50000000000000000e+00,3.02500000000000000e+02,9.13385510444641113e-01,1.31307989358901978e-01,1.05050000000000000e+03,2.50533521175384521e-01,4.65350000000000000e+03,2.50000000000000000e+00,2.01150000000000000e+03,2.50000000000000000e+00,2.50000000000000000e+00,7.67323923110961914e+00,4.58454942703247070e+00,1.16403493881225586e+01,7.99007034301757812e+00,4.61541938781738281e+00,3.00982952117919922e+00,6.40385437011718750e+00,4.61760044097900391e+00,6.09931647777557373e-01,2.06215643882751465e+00,3.33340263366699219e+00,1.79127812385559082e+00,6.51351928710937500e+00,5.44276762008666992e+00,4.44293212890625000e+00,3.19865202903747559e+00,1.50406587123870850e+00,5.01804637908935547e+00,4.99569892883300781e-01,1.72367691993713379e+00,3.10389232635498047e+00,4.27536344528198242e+00,2.58349347114562988e+00,1.71970999240875244e+00,1.07066810131072998e+00,2.02657151222229004e+00,1.13689935207366943e+00,7.83102989196777344e-01,7.75703012943267822e-01,4.63406711816787720e-01,3.64879310131072998e-01,1.14119112491607666e-01,2.01936006546020508e+00,8.67919087409973145e-01,7.71558821201324463e-01,4.11925762891769409e-01,2.59644293785095215e+00,2.01127099990844727e+00,1.54327249526977539e+00,1.11809599399566650e+00,3.20806562900543213e-01,1.47411227226257324e+00,9.58484932780265808e-02,2.31768399477005005e-01,1.34019422531127930e+00,7.70115673542022705e-01,4.38945382833480835e-01,1.66715025901794434e-01,4.68945801258087158e-01,2.64700114727020264e-01,1.00699079036712646e+00,7.14457392692565918e-01,5.02098798751831055e-01,3.50049048662185669e-01,3.17759513854980469e-01,2.17313006520271301e-01,9.22624394297599792e-02,1.69779345393180847e-01,3.60751360654830933e-01,2.32201695442199707e-01,1.45300984382629395e-01,1.98693618178367615e-01,9.03211981058120728e-02,1.32225900888442993e-01],"split_indices":[14,10,14,10,10,10,10,14,6,6,10,6,6,14,10,6,6,6,14,14,6,14,10,14,14,10,10,6,16,6,10,16,14,16,14,10,14,10,10,10,10,1,10,6,10,14,14,10,10,10,10,10,4,14,10,10,14,10,14,4,14,4,4,0,0,0,0,0,0,0,0,0,0,0,0,0,0,0,0,0,0,0,0,0,0,0,0,0,0,0,0,0,0,0,0,0,0,0,0,0,0,0,0,0,0,0,0,0,0,0,0,0,0,0,0,0,0,0,0,0,0,0,0,0,0,0,0],"sum_hessian":[9.94480000000000000e+04,2.24100000000000000e+04,7.70380000000000000e+04,8.22500000000000000e+03,1.41850000000000000e+04,8.37900000000000000e+03,6.86590000000000000e+04,3.21300000000000000e+03,5.01200000000000000e+03,4.34800000000000000e+03,9.83700000000000000e+03,3.22900000000000000e+03,5.15000000000000000e+03,3.06650000000000000e+04,3.79940000000000000e+04,1.45200000000000000e+03,1.76100000000000000e+03,1.40900000000000000e+03,3.60300000000000000e+03,1.18400000000000000e+03,3.16400000000000000e+03,5.25700000000000000e+03,4.58000000000000000e+03,1.42300000000000000e+03,1.80600000000000000e+03,2.50400000000000000e+03,2.64600000000000000e+03,7.33200000000000000e+03,2.33330000000000000e+04,1.62270000000000000e+04,2.17670000000000000e+04,6.13000000000000000e+02,8.39000000000000000e+02,2.65000000000000000e+02,1.49600000000000000e+03,2.19000000000000000e+02,1.19000000000000000e+03,1.01800000000000000e+03,2.58500000000000000e+03,1.02900000000000000e+03,1.55000000000000000e+02,1.03500000000000000e+03,2.12900000000000000e+03,2.45200000000000000e+03,2.80500000000000000e+03,3.20000000000000000e+03,1.38000000000000000e+03,3.84000000000000000e+02,1.03900000000000000e+03,5.82000000000000000e+02,1.22400000000000000e+03,1.43600000000000000e+03,1.06800000000000000e+03,1.04600000000000000e+03,1.60000000000000000e+03,3.80600000000000000e+03,3.52600000000000000e+03,1.07390000000000000e+04,1.25940000000000000e+04,1.59300000000000000e+03,1.46340000000000000e+04,1.53190000000000000e+04,6.44800000000000000e+03,2.12000000000000000e+02,4.01000000000000000e+02,2.26000000000000000e+02,6.13000000000000000e+02,9.60000000000000000e+01,1.69000000000000000e+02,6.57000000000000000e+02,8.39000000000000000e+02,1.42000000000000000e+02,7.70000000000000000e+01,9.07000000000000000e+02,2.83000000000000000e+02,4.60000000000000000e+02,5.58000000000000000e+02,1.05500000000000000e+03,1.53000000000000000e+03,1.02200000000000000e+03,7.00000000000000000e+00,1.46000000000000000e+02,9.00000000000000000e+00,6.47000000000000000e+02,3.88000000000000000e+02,1.02300000000000000e+03,1.10600000000000000e+03,1.28500000000000000e+03,1.16700000000000000e+03,1.58000000000000000e+03,1.22500000000000000e+03,1.71500000000000000e+03,1.48500000000000000e+03,6.67000000000000000e+02,7.13000000000000000e+02,7.20000000000000000e+01,3.12000000000000000e+02,4.84000000000000000e+02,5.55000000000000000e+02,2.47000000000000000e+02,3.35000000000000000e+02,7.03000000000000000e+02,5.21000000000000000e+02,1.42300000000000000e+03,1.30000000000000000e+01,9.06000000000000000e+02,1.62000000000000000e+02,1.60000000000000000e+02,8.86000000000000000e+02,1.24100000000000000e+03,3.59000000000000000e+02,1.14900000000000000e+03,2.65700000000000000e+03,6.53000000000000000e+02,2.87300000000000000e+03,4.07700000000000000e+03,6.66200000000000000e+03,5.49200000000000000e+03,7.10200000000000000e+03,9.70000000000000000e+02,6.23000000000000000e+02,2.96400000000000000e+03,1.16700000000000000e+04,1.10210000000000000e+04,4.29800000000000000e+03,5.28500000000000000e+03,1.16300000000000000e+03],"tree_param":{"num_deleted":"0","num_feature":"21","num_nodes":"127","size_leaf_vector":"0"}},{"base_weights":[7.51286792755126953e+00,6.14019393920898438e+00,1.23711338043212891e+01,6.97309255599975586e+00,2.22161531448364258e+00,1.10429420471191406e+01,1.84249305725097656e+01,2.17234649658203125e+01,6.69123363494873047e+00,2.34123277664184570e+00,9.63149487972259521e-01,1.14213294982910156e+01,2.21226620674133301e+00,3.12296714782714844e+01,1.42607536315917969e+01,1.90701675415039062e+01,2.79677486419677734e+01,8.19691753387451172e+00,5.50256395339965820e+00,1.72407484054565430e+00,2.58415412902832031e+00,1.30509769916534424e+00,7.54729449748992920e-01,1.05878610610961914e+01,1.34984703063964844e+01,2.39416837692260742e+00,1.31398200988769531e+00,3.06805171966552734e+01,4.99459075927734375e+01,1.71063117980957031e+01,8.48591232299804688e+00,2.34941501617431641e+01,1.66465454101562500e+01,3.14926109313964844e+01,1.76609535217285156e+01,4.60329437255859375e+00,1.40445871353149414e+01,6.15095472335815430e+00,3.10367369651794434e+00,4.67307424545288086e+00,1.50660443305969238e+00,6.06069183349609375e+00,2.22116613388061523e+00,1.44356060028076172e+00,1.01848351955413818e+00,5.46533524990081787e-01,8.80089163780212402e-01,1.20315856933593750e+01,8.88176631927490234e+00,1.43824834823608398e+01,9.97905921936035156e+00,2.77412319183349609e+00,1.96988415718078613e+00,1.56084060668945312e+00,6.48455396294593811e-02,3.11951675415039062e+01,8.12219023704528809e-01,7.91426391601562500e+01,2.98333644866943359e+01,1.70117301940917969e+01,5.13660964965820312e+01,4.03570175170898438e+00,8.78015136718750000e+00,3.30300064086914062e+01,2.10418071746826172e+01,2.99937844276428223e+00,1.75681991577148438e+01,2.42565059661865234e+01,3.94667930603027344e+01,1.35061216354370117e+01,3.83656692504882812e+01,7.92197751998901367e+00,3.03708672523498535e+00,2.16983470916748047e+01,9.66044998168945312e+00,4.54798841476440430e+00,1.00831584930419922e+01,4.18663358688354492e+00,2.31295919418334961e+00,5.35573196411132812e+00,3.81140208244323730e+00,2.16813397407531738e+00,9.54178214073181152e-01,6.84583330154418945e+00,4.83766508102416992e+00,1.97271215915679932e+00,3.12678861618041992e+00,1.29935050010681152e+00,2.07378530502319336e+00,1.21322667598724365e+00,5.83436191082000732e-01,5.10129213333129883e-01,2.12397718429565430e+00,1.59437036514282227e+00,7.38657593727111816e-01,1.28933029174804688e+01,7.15884065628051758e+00,7.00148963928222656e+00,1.14496479034423828e+01,2.39498805999755859e+01,1.41453390121459961e+01,1.35155229568481445e+01,8.72921180725097656e+00,1.40769422054290771e+00,2.92004752159118652e+00,2.34338736534118652e+00,1.69882798194885254e+00,9.82753157615661621e-01,1.76579880714416504e+00,3.08701545000076294e-01,-6.36887371540069580e-01,3.72670288085937500e+01,2.99278030395507812e+01,-1.41735324859619141e+01,5.03584671020507812e+00,-8.95012664794921875e+00,3.87834091186523438e+01,1.54242734909057617e+01,1.86092834472656250e+01,7.06368303298950195e+00,8.81605267524719238e-01,1.99407749176025391e+01,8.56152725219726562e+00],"default_left":[true,true,true,true,true,true,true,true,true,true,true,true,true,true,true,true,true,true,true,true,true,true,true,true,true,true,true,true,true,true,true,true,true,true,true,true,true,true,true,true,true,true,true,true,true,true,true,true,true,true,true,true,true,true,true,true,true,false,true,true,false,true,true,false,false,false,false,false,false,false,false,false,false,false,false,false,false,false,false,false,false,false,false,false,false,false,false,false,false,false,false,false,false,false,false,false,false,false,false,false,false,false,false,false,false,false,false,false,false,false,false,false,false,false,false,false,false,false,false,false,false,false,false],"id":4,"leaf_child_counts":[0,0,0,0,0,0,0,0,0,0,0,0,0,0,0,0,0,0,0,0,0,0,0,0,0,0,0,0,0,0,0,0,0,0,0,0,0,0,0,0,0,0,0,0,0,0,0,0,0,0,0,0,0,0,0,0,0,0,0,0,0,0,0,0,0,0,0,0,0,0,0,0,0,0,0,0,0,0,0,0,0,0,0,0,0,0,0,0,0,0,0,0,0,0,0,0,0,0,0,0,0,0,0,0,0,0,0,0,0,0,0,0,0,0,0,0,0,0,0,0,0,0,0],"left_children":[1,3,5,7,9,11,13,15,17,19,21,23,25,27,29,31,33,35,37,39,41,43,45,47,49,51,53,55,57,59,61,63,65,67,69,71,73,75,77,79,81,83,85,87,89,91,93,95,97,99,101,103,105,107,109,111,113,-1,115,117,-1,119,121,-1,-1,-1,-1,-1,-1,-1,-1,-1,-1,-1,-1,-1,-1,-1,-1,-1,-1,-1,-1,-1,-1,-1,-1,-1,-1,-1,-1,-1,-1,-1,-1,-1,-1,-1,-1,-1,-1,-1,-1,-1,-1,-1,-1,-1,-1,-1,-1,-1,-1,-1,-1,-1,-1,-1,-1,-1,-1,-1,-1],"loss_changes":[6.64445000000000000e+05,2.53567250000000000e+05,1.76295750000000000e+05,2.66252250000000000e+05,2.04817187500000000e+03,6.01335000000000000e+04,2.10066750000000000e+05,1.93648125000000000e+04,1.12488000000000000e+05,1.86026562500000000e+03,8.33973388671875000e+01,2.97450000000000000e+04,1.17933593750000000e+02,8.41681250000000000e+03,4.88405000000000000e+04,8.67975000000000000e+03,1.23772812500000000e+04,5.82809375000000000e+05,5.46383750000000000e+04,2.24783984375000000e+03,1.12468398437500000e+04,1.62691650390625000e+01,1.87803344726562500e+01,3.02512500000000000e+04,1.52258125000000000e+04,9.36784667968750000e+01,3.90605163574218750e+01,1.44701875000000000e+04,1.29066445312500000e+04,5.59387500000000000e+03,1.25565625000000000e+03,6.25039062500000000e+03,6.86517187500000000e+03,1.42760156250000000e+04,7.48211718750000000e+03,8.92784375000000000e+04,3.54032000000000000e+05,1.74313062500000000e+05,6.39467968750000000e+03,1.21350097656250000e+02,1.19513330078125000e+03,7.76371093750000000e+02,1.81210156250000000e+03,2.44799804687500000e+01,1.19158172607421875e+01,1.49957199096679688e+01,4.51913452148437500e+01,2.79271250000000000e+04,2.72143750000000000e+04,8.61412500000000000e+03,4.27996093750000000e+03,6.00947265625000000e+01,2.57836914062500000e+01,1.08239440917968750e+01,3.96128702163696289e+00,6.01812500000000000e+03,1.14737768554687500e+03,0.00000000000000000e+00,6.24805371093750000e+03,4.76475000000000000e+03,0.00000000000000000e+00,5.95456909179687500e+02,2.08382812500000000e+03,0.00000000000000000e+00,0.00000000000000000e+00,0.00000000000000000e+00,0.00000000000000000e+00,0.00000000000000000e+00,0.00000000000000000e+00,0.00000000000000000e+00,0.00000000000000000e+00,0.00000000000000000e+00,0.00000000000000000e+00,0.00000000000000000e+00,0.00000000000000000e+00,0.00000000000000000e+00,0.00000000000000000e+00,0.00000000000000000e+00,0.00000000000000000e+00,0.00000000000000000e+00,0.00000000000000000e+00,0.00000000000000000e+00,0.00000000000000000e+00,0.00000000000000000e+00,0.00000000000000000e+00,0.00000000000000000e+00,0.00000000000000000e+00,0.00000000000000000e+00,0.00000000000000000e+00,0.00000000000000000e+00,0.00000000000000000e+00,0.00000000000000000e+00,0.00000000000000000e+00,0.00000000000000000e+00,0.00000000000000000e+00,0.00000000000000000e+00,0.00000000000000000e+00,0.00000000000000000e+00,0.00000000000000000e+00,0.00000000000000000e+00,0.00000000000000000e+00,0.00000000000000000e+00,0.00000000000000000e+00,0.00000000000000000e+00,0.00000000000000000e+00,0.00000000000000000e+00,0.00000000000000000e+00,0.00000000000000000e+00,0.00000000000000000e+00,0.00000000000000000e+00,0.00000000000000000e+00,0.00000000000000000e+00,0.00000000000000000e+00,0.00000000000000000e+00,0.00000000000000000e+00,0.00000000000000000e+00,0.00000000000000000e+00,0.00000000000000000e+00,0.00000000000000000e+00,0.00000000000000000e+00,0.00000000000000000e+00,0.00000000000000000e+00,0.00000000000000000e+00],"parents":[2147483647,0,0,1,1,2,2,3,3,4,4,5,5,6,6,7,7,8,8,9,9,10,10,11,11,12,12,13,13,14,14,15,15,16,16,17,17,18,18,19,19,20,20,21,21,22,22,23,23,24,24,25,25,26,26,27,27,28,28,29,29,30,30,31,31,32,32,33,33,34,34,35,35,36,36,37,37,38,38,39,39,40,40,41,41,42,42,43,43,44,44,45,45,46,46,47,47,48,48,49,49,50,50,51,51,52,52,53,53,54,54,55,55,56,56,58,58,59,59,61,61,62,62],"right_children":[2,4,6,8,10,12,14,16,18,20,22,24,26,28,30,32,34,36,38,40,42,44,46,48,50,52,54,56,58,60,62,64,66,68,70,72,74,76,78,80,82,84,86,88,90,92,94,96,98,100,102,104,106,108,110,112,114,-1,116,118,-1,120,122,-1,-1,-1,-1,-1,-1,-1,-1,-1,-1,-1,-1,-1,-1,-1,-1,-1,-1,-1,-1,-1,-1,-1,-1,-1,-1,-1,-1,-1,-1,-1,-1,-1,-1,-1,-1,-1,-1,-1,-1,-1,-1,-1,-1,-1,-1,-1,-1,-1,-1,-1,-1,-1,-1,-1,-1,-1,-1,-1,-1],"split_conditions":[3.65414900000000000e+06,1.49999996647238731e-02,5.30000000000000000e+01,8.65000000000000000e+01,4.54950000000000000e+03,1.49999996647238731e-02,1.20650000000000000e+03,2.53881920000000000e+08,2.06050000000000000e+03,1.25050000000000000e+03,4.71750000000000000e+03,1.43453450000000000e+07,4.39500000000000000e+03,1.17250000000000000e+03,3.74850000000000000e+03,3.15000000000000000e+01,6.45000000000000000e+01,1.25050000000000000e+03,4.36650000000000000e+03,8.25000000000000000e+01,1.55250000000000000e+03,1.52286771200000000e+09,2.65000000000000000e+01,3.12150000000000000e+03,1.45744025600000000e+09,2.95000000000000000e+01,4.93550000000000000e+03,1.14750000000000000e+03,1.18550000000000000e+03,3.74350000000000000e+03,3.83100000000000000e+03,2.15000000000000000e+01,1.25000000000000000e+01,3.35000000000000000e+01,8.87500000000000000e+02,4.60500000000000000e+02,1.54750000000000000e+03,1.10016268800000000e+09,4.63250000000000000e+03,4.45000000000000000e+01,6.05500000000000000e+02,1.42950000000000000e+03,1.48873369600000000e+09,4.68750000000000000e+03,4.67750000000000000e+03,4.99500000000000000e+03,3.85000000000000000e+01,1.10431560000000000e+07,7.74588850000000000e+06,1.37550000000000000e+03,4.07050000000000000e+03,6.52107648000000000e+08,3.00450000000000000e+03,4.54050000000000000e+03,4.98500000000000000e+03,1.96500000000000000e+02,1.15050000000000000e+03,7.91426420211791992e+00,1.18900000000000000e+03,2.48850000000000000e+03,5.13660955429077148e+00,3.79150000000000000e+03,3.85050000000000000e+03,3.30300068855285645e+00,2.10418081283569336e+00,2.99937844276428223e-01,1.75681996345520020e+00,2.42565059661865234e+00,3.94667935371398926e+00,1.35061216354370117e+00,3.83656692504882812e+00,7.92197763919830322e-01,3.03708672523498535e-01,2.16983485221862793e+00,9.66045022010803223e-01,4.54798847436904907e-01,1.00831592082977295e+00,4.18663352727890015e-01,2.31295928359031677e-01,5.35573184490203857e-01,3.81140202283859253e-01,2.16813400387763977e-01,9.54178199172019958e-02,6.84583365917205811e-01,4.83766525983810425e-01,1.97271212935447693e-01,3.12678873538970947e-01,1.29935055971145630e-01,2.07378536462783813e-01,1.21322669088840485e-01,5.83436191082000732e-02,5.10129220783710480e-02,2.12397724390029907e-01,1.59437045454978943e-01,7.38657638430595398e-02,1.28933036327362061e+00,7.15884089469909668e-01,7.00148999691009521e-01,1.14496481418609619e+00,2.39498805999755859e+00,1.41453397274017334e+00,1.35155236721038818e+00,8.72921168804168701e-01,1.40769422054290771e-01,2.92004764080047607e-01,2.34338745474815369e-01,1.69882804155349731e-01,9.82753187417984009e-02,1.76579877734184265e-01,3.08701545000076294e-02,-6.36887401342391968e-02,3.72670292854309082e+00,2.99278044700622559e+00,-1.41735327243804932e+00,5.03584682941436768e-01,-8.95012676715850830e-01,3.87834095954895020e+00,1.54242742061614990e+00,1.86092841625213623e+00,7.06368327140808105e-01,8.81605297327041626e-02,1.99407756328582764e+00,8.56152713298797607e-01],"split_indices":[16,11,1,0,0,11,0,6,0,0,0,16,0,0,0,0,0,0,0,0,0,6,1,0,6,1,0,0,0,0,0,1,1,0,3,0,0,6,0,0,0,0,6,0,0,0,1,16,16,0,0,6,0,0,0,0,0,0,0,0,0,0,0,0,0,0,0,0,0,0,0,0,0,0,0,0,0,0,0,0,0,0,0,0,0,0,0,0,0,0,0,0,0,0,0,0,0,0,0,0,0,0,0,0,0,0,0,0,0,0,0,0,0,0,0,0,0,0,0,0,0,0,0],"sum_hessian":[9.96450000000000000e+04,7.76950000000000000e+04,2.19500000000000000e+04,6.40750000000000000e+04,1.36200000000000000e+04,1.80030000000000000e+04,3.94700000000000000e+03,1.20000000000000000e+03,6.28750000000000000e+04,1.24370000000000000e+04,1.18300000000000000e+03,1.72630000000000000e+04,7.40000000000000000e+02,9.67000000000000000e+02,2.98000000000000000e+03,8.45000000000000000e+02,3.55000000000000000e+02,2.77360000000000000e+04,3.51390000000000000e+04,3.51500000000000000e+03,8.92200000000000000e+03,4.46000000000000000e+02,7.37000000000000000e+02,1.23240000000000000e+04,4.93900000000000000e+03,6.14000000000000000e+02,1.26000000000000000e+02,9.42000000000000000e+02,2.50000000000000000e+01,1.99500000000000000e+03,9.85000000000000000e+02,2.96000000000000000e+02,5.49000000000000000e+02,2.63000000000000000e+02,9.20000000000000000e+01,1.71800000000000000e+04,1.05560000000000000e+04,2.76610000000000000e+04,7.47800000000000000e+03,2.40000000000000000e+02,3.27500000000000000e+03,8.42000000000000000e+02,8.08000000000000000e+03,2.98000000000000000e+02,1.48000000000000000e+02,2.79000000000000000e+02,4.58000000000000000e+02,6.67200000000000000e+03,5.65200000000000000e+03,3.94500000000000000e+03,9.94000000000000000e+02,3.21000000000000000e+02,2.93000000000000000e+02,1.05000000000000000e+02,2.10000000000000000e+01,9.26000000000000000e+02,1.60000000000000000e+01,9.00000000000000000e+00,1.60000000000000000e+01,1.99100000000000000e+03,4.00000000000000000e+00,6.20000000000000000e+01,9.23000000000000000e+02,5.80000000000000000e+01,2.38000000000000000e+02,3.50000000000000000e+01,5.14000000000000000e+02,1.40000000000000000e+02,1.23000000000000000e+02,7.80000000000000000e+01,1.40000000000000000e+01,5.50700000000000000e+03,1.16730000000000000e+04,3.84300000000000000e+03,6.71300000000000000e+03,1.96520000000000000e+04,8.00900000000000000e+03,3.15400000000000000e+03,4.32400000000000000e+03,1.31000000000000000e+02,1.09000000000000000e+02,1.48900000000000000e+03,1.78600000000000000e+03,5.10000000000000000e+02,3.32000000000000000e+02,6.34300000000000000e+03,1.73700000000000000e+03,2.45000000000000000e+02,5.30000000000000000e+01,1.01000000000000000e+02,4.70000000000000000e+01,2.74000000000000000e+02,5.00000000000000000e+00,7.40000000000000000e+01,3.84000000000000000e+02,5.66800000000000000e+03,1.00400000000000000e+03,3.26500000000000000e+03,2.38700000000000000e+03,9.30000000000000000e+01,3.85200000000000000e+03,2.57000000000000000e+02,7.37000000000000000e+02,3.20000000000000000e+01,2.89000000000000000e+02,1.20000000000000000e+02,1.73000000000000000e+02,2.90000000000000000e+01,7.60000000000000000e+01,1.60000000000000000e+01,5.00000000000000000e+00,1.55000000000000000e+02,7.71000000000000000e+02,3.00000000000000000e+00,1.30000000000000000e+01,3.00000000000000000e+00,1.30000000000000000e+01,1.00400000000000000e+03,9.87000000000000000e+02,3.10000000000000000e+01,3.10000000000000000e+01,1.60000000000000000e+01,9.07000000000000000e+02],"tree_param":{"num_deleted":"0","num_feature":"21","num_nodes":"123","size_leaf_vector":"0"}},{"base_weights":[6.74850320816040039e+00,2.25653419494628906e+01,2.18232965469360352e+00,4.14788131713867188e+01,1.15844507217407227e+01,6.81652498245239258e+00,1.79590523242950439e+00,5.50862274169921875e+01,3.45220642089843750e+01,1.67989959716796875e+01,5.61019897460937500e+00,1.18727750778198242e+01,3.87765765190124512e+00,2.35352754592895508e+00,1.08817911148071289e+00,6.79750213623046875e+01,4.43630752563476562e+01,2.42756538391113281e+01,3.86111984252929688e+01,2.35424098968505859e+01,1.43241405487060547e+01,7.23518133163452148e+00,2.34877371788024902e+00,6.81701612472534180e+00,1.66393508911132812e+01,2.02934837341308594e+00,5.68507909774780273e+00,4.14906215667724609e+00,1.94623196125030518e+00,1.37408280372619629e+00,7.78264403343200684e-01,5.06975173950195312e+01,7.94337539672851562e+01,2.85735549926757812e+01,4.70355949401855469e+01,4.27821044921875000e+01,2.17994136810302734e+01,5.33169174194335938e+01,3.28280105590820312e+01,1.44752006530761719e+01,2.64702873229980469e+01,1.72176036834716797e+01,1.18494920730590820e+01,4.77399253845214844e+00,8.21328258514404297e+00,3.62003731727600098e+00,1.23223030567169189e+00,1.28839559555053711e+01,5.67185688018798828e+00,4.50967254638671875e+01,1.59780673980712891e+01,2.85848331451416016e+00,1.08174753189086914e+00,1.59922866821289062e+01,4.71032762527465820e+00,2.09788393974304199e+00,6.28014373779296875e+00,1.20488524436950684e+00,2.71035981178283691e+00,1.53375434875488281e+00,8.77360761165618896e-01,9.50301587581634521e-01,5.50974309444427490e-01,6.89161148071289062e+01,3.75564918518066406e+01,9.19472198486328125e+01,6.10150756835937500e+01,1.64831314086914062e+01,3.28487205505371094e+01,5.70591239929199219e+01,3.92482910156250000e+01,9.08317852020263672e+00,4.59754791259765625e+01,2.51411380767822266e+01,1.37749595642089844e+01,5.22346420288085938e+01,8.05019683837890625e+01,3.89508476257324219e+01,2.74220752716064453e+01,1.33591938018798828e+01,3.49664039611816406e+01,3.77938003540039062e+01,2.21720676422119141e+01,1.17203111648559570e+01,2.36744174957275391e+01,1.62726325988769531e+01,9.96239948272705078e+00,5.96246242523193359e+00,1.40780699253082275e+00,1.19550056457519531e+01,6.00645065307617188e+00,3.44978904724121094e+00,4.61708946228027344e+01,6.77162349224090576e-01,3.68945169448852539e+00,1.91171722412109375e+01,8.45419597625732422e+00,3.35526371002197266e+00,6.90983009338378906e+00,1.45553760528564453e+01,6.80538330078125000e+01,1.90343856811523438e+01,1.23333148956298828e+01,3.62045311927795410e+00,2.14422726631164551e+00,1.15089726448059082e+00,-6.52163934707641602e+00,2.64636497497558594e+01,1.04657859802246094e+01,5.91166114807128906e+00,2.50315403938293457e+00,4.27893590927124023e+00,1.93272376060485840e+00,8.02305412292480469e+00,4.94676733016967773e+00,2.45213791728019714e-01,1.42649471759796143e+00,3.62967133522033691e+00,2.22712397575378418e+00,1.22446143627166748e+00,1.79352366924285889e+00,7.09263503551483154e-01,1.33593082427978516e+00,1.37321972846984863e+00,8.12314927577972412e-01,2.03537201881408691e+00,5.41476726531982422e-01],"default_left":[true,true,true,true,true,true,true,true,true,true,true,true,true,true,true,true,true,true,true,true,true,true,true,true,true,true,true,true,true,true,true,true,true,true,true,true,true,true,true,true,true,true,true,true,true,true,true,true,true,true,true,true,true,true,true,true,true,true,true,true,true,true,true,false,false,false,false,false,false,false,false,false,false,false,false,false,false,false,false,false,false,false,false,false,false,false,false,false,false,false,false,false,false,false,false,false,false,false,false,false,false,false,false,false,false,false,false,false,false,false,false,false,false,false,false,false,false,false,false,false,false,false,false,false,false,false,false],"id":5,"leaf_child_counts":[0,0,0,0,0,0,0,0,0,0,0,0,0,0,0,0,0,0,0,0,0,0,0,0,0,0,0,0,0,0,0,0,0,0,0,0,0,0,0,0,0,0,0,0,0,0,0,0,0,0,0,0,0,0,0,0,0,0,0,0,0,0,0,0,0,0,0,0,0,0,0,0,0,0,0,0,0,0,0,0,0,0,0,0,0,0,0,0,0,0,0,0,0,0,0,0,0,0,0,0,0,0,0,0,0,0,0,0,0,0,0,0,0,0,0,0,0,0,0,0,0,0,0,0,0,0,0],"left_children":[1,3,5,7,9,11,13,15,17,19,21,23,25,27,29,31,33,35,37,39,41,43,45,47,49,51,53,55,57,59,61,63,65,67,69,71,73,75,77,79,81,83,85,87,89,91,93,95,97,99,101,103,105,107,109,111,113,115,117,119,121,123,125,-1,-1,-1,-1,-1,-1,-1,-1,-1,-1,-1,-1,-1,-1,-1,-1,-1,-1,-1,-1,-1,-1,-1,-1,-1,-1,-1,-1,-1,-1,-1,-1,-1,-1,-1,-1,-1,-1,-1,-1,-1,-1,-1,-1,-1,-1,-1,-1,-1,-1,-1,-1,-1,-1,-1,-1,-1,-1,-1,-1,-1,-1,-1,-1],"loss_changes":[7.19648350000000000e+06,4.63550400000000000e+06,1.38455218750000000e+05,7.74243000000000000e+05,4.39910875000000000e+05,8.83837500000000000e+04,2.81643437500000000e+04,3.80099000000000000e+05,2.26490500000000000e+05,1.25514500000000000e+05,3.48766093750000000e+04,5.25903437500000000e+04,1.25661054687500000e+04,2.91852343750000000e+04,2.78602734375000000e+03,2.44831500000000000e+05,6.26280000000000000e+04,7.01441875000000000e+04,3.28057500000000000e+05,5.33227500000000000e+04,3.93137500000000000e+04,1.05384375000000000e+04,3.10549023437500000e+03,7.31223437500000000e+03,2.04501562500000000e+04,1.46064697265625000e+03,1.90440390625000000e+04,3.22464843750000000e+04,1.84301015625000000e+04,1.29620312500000000e+03,5.89765625000000000e+02,1.18074875000000000e+05,1.68173000000000000e+05,1.09334218750000000e+04,9.88435000000000000e+04,1.91680000000000000e+04,3.63909375000000000e+04,2.79530000000000000e+04,9.11475000000000000e+04,1.08755625000000000e+04,7.35312500000000000e+04,8.99507500000000000e+04,2.46948750000000000e+04,5.00037109375000000e+03,2.58810625000000000e+04,7.25879101562500000e+03,1.59056604003906250e+03,4.47713867187500000e+03,2.54643554687500000e+03,1.65379765625000000e+04,1.20298437500000000e+04,5.32668457031250000e+02,4.65453125000000000e+02,9.21371484375000000e+03,4.59889843750000000e+03,1.34688671875000000e+03,8.37071875000000000e+03,3.51257031250000000e+03,7.11003906250000000e+03,9.92392578125000000e+02,3.06002441406250000e+02,5.00229980468750000e+02,9.06206054687500000e+01,0.00000000000000000e+00,0.00000000000000000e+00,0.00000000000000000e+00,0.00000000000000000e+00,0.00000000000000000e+00,0.00000000000000000e+00,0.00000000000000000e+00,0.00000000000000000e+00,0.00000000000000000e+00,0.00000000000000000e+00,0.00000000000000000e+00,0.00000000000000000e+00,0.00000000000000000e+00,0.00000000000000000e+00,0.00000000000000000e+00,0.00000000000000000e+00,0.00000000000000000e+00,0.00000000000000000e+00,0.00000000000000000e+00,0.00000000000000000e+00,0.00000000000000000e+00,0.00000000000000000e+00,0.00000000000000000e+00,0.00000000000000000e+00,0.00000000000000000e+00,0.00000000000000000e+00,0.00000000000000000e+00,0.00000000000000000e+00,0.00000000000000000e+00,0.00000000000000000e+00,0.00000000000000000e+00,0.00000000000000000e+00,0.00000000000000000e+00,0.00000000000000000e+00,0.00000000000000000e+00,0.00000000000000000e+00,0.00000000000000000e+00,0.00000000000000000e+00,0.00000000000000000e+00,0.00000000000000000e+00,0.00000000000000000e+00,0.00000000000000000e+00,0.00000000000000000e+00,0.00000000000000000e+00,0.00000000000000000e+00,0.00000000000000000e+00,0.00000000000000000e+00,0.00000000000000000e+00,0.00000000000000000e+00,0.00000000000000000e+00,0.00000000000000000e+00,0.00000000000000000e+00,0.00000000000000000e+00,0.00000000000000000e+00,0.00000000000000000e+00,0.00000000000000000e+00,0.00000000000000000e+00,0.00000000000000000e+00,0.00000000000000000e+00,0.00000000000000000e+00,0.00000000000000000e+00,0.00000000000000000e+00,0.00000000000000000e+00,0.00000000000000000e+00],"parents":[2147483647,0,0,1,1,2,2,3,3,4,4,5,5,6,6,7,7,8,8,9,9,10,10,11,11,12,12,13,13,14,14,15,15,16,16,17,17,18,18,19,19,20,20,21,21,22,22,23,23,24,24,25,25,26,26,27,27,28,28,29,29,30,30,31,31,32,32,33,33,34,34,35,35,36,36,37,37,38,38,39,39,40,40,41,41,42,42,43,43,44,44,45,45,46,46,47,47,48,48,49,49,50,50,51,51,52,52,53,53,54,54,55,55,56,56,57,57,58,58,59,59,60,60,61,61,62,62],"right_children":[2,4,6,8,10,12,14,16,18,20,22,24,26,28,30,32,34,36,38,40,42,44,46,48,50,52,54,56,58,60,62,64,66,68,70,72,74,76,78,80,82,84,86,88,90,92,94,96,98,100,102,104,106,108,110,112,114,116,118,120,122,124,126,-1,-1,-1,-1,-1,-1,-1,-1,-1,-1,-1,-1,-1,-1,-1,-1,-1,-1,-1,-1,-1,-1,-1,-1,-1,-1,-1,-1,-1,-1,-1,-1,-1,-1,-1,-1,-1,-1,-1,-1,-1,-1,-1,-1,-1,-1,-1,-1,-1,-1,-1,-1,-1,-1,-1,-1,-1,-1,-1,-1,-1,-1,-1,-1],"split_conditions":[2.00500000000000000e+02,4.34792518615722656e-01,6.05500000000000000e+02,1.19956500828266144e-01,7.83056497573852539e-01,4.52937006950378418e-01,6.56733512878417969e-01,1.25500000000000000e+02,6.52107648000000000e+08,5.45531988143920898e-01,9.06105995178222656e-01,6.70635520000000000e+08,1.49600000000000000e+03,1.61150000000000000e+03,8.37407469749450684e-01,6.51499264000000000e+08,1.01295961600000000e+09,1.06500000000000000e+02,1.25500000000000000e+02,2.57816704000000000e+08,1.01500000000000000e+02,1.22450000000000000e+03,2.29950000000000000e+03,5.87955005466938019e-02,2.51000000000000000e+02,8.02500000000000000e+02,1.74650000000000000e+03,6.87064128000000000e+08,4.53500000000000000e+02,6.00050000000000000e+03,9.09229516983032227e-01,6.05000000000000000e+01,1.32000000000000000e+03,7.87000000000000000e+02,1.75000000000000000e+02,4.62500000000000000e+02,5.00000000000000000e+00,4.25662517547607422e-01,2.59361982345581055e-01,5.39786458015441895e-01,2.18000000000000000e+03,7.16148224000000000e+08,6.31036043167114258e-01,8.79014968872070312e-01,1.25500000000000000e+02,1.16050750000000000e+06,1.53512652800000000e+09,3.76500000000000000e+02,2.50495584000000000e+08,5.92000000000000000e+02,4.50500000000000000e+02,6.78030014038085938e-01,1.47000000000000000e+03,3.02500000000000000e+02,8.44611525535583496e-01,5.25000000000000000e+01,2.66140490770339966e-01,6.70635520000000000e+08,3.09688508510589600e-01,5.71500000000000000e+02,1.49972992000000000e+09,1.81500000000000000e+03,6.57500000000000000e+02,6.89161157608032227e+00,3.75564932823181152e+00,9.19472217559814453e+00,6.10150766372680664e+00,1.64831316471099854e+00,3.28487205505371094e+00,5.70591259002685547e+00,3.92482924461364746e+00,9.08317863941192627e-01,4.59754800796508789e+00,2.51411390304565430e+00,1.37749600410461426e+00,5.22346448898315430e+00,8.05019664764404297e+00,3.89508485794067383e+00,2.74220752716064453e+00,1.33591938018798828e+00,3.49664044380187988e+00,3.77938008308410645e+00,2.21720671653747559e+00,1.17203116416931152e+00,2.36744189262390137e+00,1.62726330757141113e+00,9.96239960193634033e-01,5.96246242523193359e-01,1.40780702233314514e-01,1.19550061225891113e+00,6.00645065307617188e-01,3.44978898763656616e-01,4.61708974838256836e+00,6.77162334322929382e-02,3.68945181369781494e-01,1.91171729564666748e+00,8.45419585704803467e-01,3.35526376962661743e-01,6.90982997417449951e-01,1.45553767681121826e+00,6.80538320541381836e+00,1.90343856811523438e+00,1.23333156108856201e+00,3.62045317888259888e-01,2.14422732591629028e-01,1.15089729428291321e-01,-6.52163922786712646e-01,2.64636492729187012e+00,1.04657864570617676e+00,5.91166138648986816e-01,2.50315397977828979e-01,4.27893608808517456e-01,1.93272382020950317e-01,8.02305400371551514e-01,4.94676738977432251e-01,2.45213788002729416e-02,1.42649471759796143e-01,3.62967133522033691e-01,2.22712397575378418e-01,1.22446142137050629e-01,1.79352372884750366e-01,7.09263533353805542e-02,1.33593082427978516e-01,1.37321978807449341e-01,8.12314972281455994e-02,2.03537210822105408e-01,5.41476719081401825e-02],"split_indices":[14,10,14,10,10,10,10,14,6,10,10,6,0,14,10,6,6,0,14,6,14,0,0,10,14,0,0,6,3,14,10,0,0,0,14,3,5,10,10,10,0,6,10,10,14,16,6,14,6,3,14,10,0,14,10,0,10,6,10,3,6,14,14,0,0,0,0,0,0,0,0,0,0,0,0,0,0,0,0,0,0,0,0,0,0,0,0,0,0,0,0,0,0,0,0,0,0,0,0,0,0,0,0,0,0,0,0,0,0,0,0,0,0,0,0,0,0,0,0,0,0,0,0,0,0,0,0],"sum_hessian":[9.96430000000000000e+04,2.23210000000000000e+04,7.73220000000000000e+04,8.19800000000000000e+03,1.41230000000000000e+04,5.95000000000000000e+03,7.13720000000000000e+04,2.77100000000000000e+03,5.42700000000000000e+03,7.54000000000000000e+03,6.58300000000000000e+03,2.18600000000000000e+03,3.76400000000000000e+03,3.99180000000000000e+04,3.14540000000000000e+04,1.25600000000000000e+03,1.51500000000000000e+03,1.55000000000000000e+03,3.87700000000000000e+03,2.02200000000000000e+03,5.51800000000000000e+03,4.39300000000000000e+03,2.19000000000000000e+03,1.06200000000000000e+03,1.12400000000000000e+03,1.86200000000000000e+03,1.90200000000000000e+03,7.37900000000000000e+03,3.25390000000000000e+04,1.63590000000000000e+04,1.50950000000000000e+04,5.03000000000000000e+02,7.53000000000000000e+02,2.21000000000000000e+02,1.29400000000000000e+03,1.81000000000000000e+02,1.36900000000000000e+03,1.09200000000000000e+03,2.78500000000000000e+03,4.95000000000000000e+02,1.52700000000000000e+03,2.54100000000000000e+03,2.97700000000000000e+03,1.25100000000000000e+03,3.14200000000000000e+03,1.02300000000000000e+03,1.16700000000000000e+03,1.67000000000000000e+02,8.95000000000000000e+02,2.40000000000000000e+01,1.10000000000000000e+03,9.92000000000000000e+02,8.70000000000000000e+02,1.63000000000000000e+02,1.73900000000000000e+03,3.76100000000000000e+03,3.61800000000000000e+03,1.65170000000000000e+04,1.60220000000000000e+04,1.23780000000000000e+04,3.98100000000000000e+03,8.59000000000000000e+03,6.50500000000000000e+03,2.09000000000000000e+02,2.94000000000000000e+02,4.46000000000000000e+02,3.07000000000000000e+02,5.90000000000000000e+01,1.62000000000000000e+02,5.63000000000000000e+02,7.31000000000000000e+02,1.60000000000000000e+01,1.65000000000000000e+02,9.65000000000000000e+02,4.04000000000000000e+02,1.05300000000000000e+03,3.90000000000000000e+01,1.30300000000000000e+03,1.48200000000000000e+03,4.71000000000000000e+02,2.40000000000000000e+01,4.18000000000000000e+02,1.10900000000000000e+03,1.37400000000000000e+03,1.16700000000000000e+03,8.88000000000000000e+02,2.08900000000000000e+03,9.24000000000000000e+02,3.27000000000000000e+02,1.16400000000000000e+03,1.97800000000000000e+03,1.02000000000000000e+03,3.00000000000000000e+00,9.53000000000000000e+02,2.14000000000000000e+02,6.80000000000000000e+01,9.90000000000000000e+01,3.13000000000000000e+02,5.82000000000000000e+02,1.10000000000000000e+01,1.30000000000000000e+01,5.96000000000000000e+02,5.04000000000000000e+02,4.78000000000000000e+02,5.14000000000000000e+02,8.63000000000000000e+02,7.00000000000000000e+00,5.50000000000000000e+01,1.08000000000000000e+02,1.12500000000000000e+03,6.14000000000000000e+02,2.63000000000000000e+02,3.49800000000000000e+03,1.56600000000000000e+03,2.05200000000000000e+03,3.09900000000000000e+03,1.34180000000000000e+04,5.51800000000000000e+03,1.05040000000000000e+04,5.65300000000000000e+03,6.72500000000000000e+03,2.91500000000000000e+03,1.06600000000000000e+03,2.11100000000000000e+03,6.47900000000000000e+03,4.00000000000000000e+01,6.46500000000000000e+03],"tree_param":{"num_deleted":"0","num_feature":"21","num_nodes":"127","size_leaf_vector":"0"}},{"base_weights":[6.07534837722778320e+00,1.06780195236206055e+01,3.37879323959350586e+00,1.14509563446044922e+01,3.31890439987182617e+00,5.58225774765014648e+00,2.35586452484130859e+00,1.41916151046752930e+01,9.84254169464111328e+00,4.37149190902709961e+00,2.97793722152709961e+00,6.19397020339965820e+00,2.07425308227539062e+00,3.21506905555725098e+00,1.38203620910644531e+00,1.91104354858398438e+01,1.18334178924560547e+01,7.07975864410400391e+00,1.06848325729370117e+01,5.17457914352416992e+00,3.64078402519226074e+00,2.10774636268615723e+00,3.33324337005615234e+00,4.54924345016479492e+00,6.92388629913330078e+00,1.50435030460357666e+00,2.30252790451049805e+00,3.58204793930053711e+00,1.42249011993408203e+00,1.65397202968597412e+00,6.28248691558837891e-01,1.41149024963378906e+01,2.37833957672119141e+01,1.25849733352661133e+01,6.17502546310424805e+00,1.27715311050415039e+01,5.81536245346069336e+00,1.64790821075439453e+01,9.32175827026367188e+00,3.97752976417541504e+00,6.58421659469604492e+00,4.05941295623779297e+00,2.20900440216064453e+00,2.89912581443786621e+00,1.78126490116119385e+00,5.27025699615478516e+00,2.72143363952636719e+00,1.54841842651367188e+01,4.48503541946411133e+00,1.04350471496582031e+01,5.51708602905273438e+00,2.25208163261413574e+00,1.29806625843048096e+00,4.15402412414550781e+00,1.93155074119567871e+00,4.28470516204833984e+00,2.92686963081359863e+00,1.81474578380584717e+00,1.16855359077453613e+00,1.64007043838500977e+00,1.86034908294677734e+01,1.20001232624053955e+00,4.35206860303878784e-01,1.81883792877197266e+01,1.03007516860961914e+01,1.57938699722290039e+01,2.46784267425537109e+01,3.09318008422851562e+01,1.24523591995239258e+01,3.31260800361633301e+00,6.36870098114013672e+00,3.89259147644042969e+01,1.24601621627807617e+01,5.71855545043945312e+00,3.76078300476074219e+01,1.59220170974731445e+01,2.24377899169921875e+01,9.70732593536376953e+00,7.58984422683715820e+00,4.45445060729980469e+00,2.73798203468322754e+00,9.66645812988281250e+00,5.48675537109375000e+00,3.28834843635559082e+00,4.88034296035766602e+00,-1.28068208694458008e+00,2.51315212249755859e+00,2.81052851676940918e+00,6.19986152648925781e+00,1.54599761962890625e+00,2.47406482696533203e+00,4.24028205871582031e+00,5.97595834732055664e+00,2.31816482543945312e+00,3.29790234565734863e+00,7.25685119628906250e+00,4.14801559448242188e+01,1.83533036708831787e+00,4.64467239379882812e+00,2.91366062164306641e+01,1.02631731033325195e+01,7.26297235488891602e+00,4.70245313644409180e+00,2.63936161994934082e+00,1.33357000350952148e+00,1.54228353500366211e+00,9.95987176895141602e-01,8.74447047710418701e-01,4.22796630859375000e+00,2.09005618095397949e+00,1.26676428318023682e+00,2.98348736763000488e+00,5.56740856170654297e+00,3.66662883758544922e+00,2.66229295730590820e+00,1.26701998710632324e+00,2.50691318511962891e+00,1.33422148227691650e+00,9.35663819313049316e-01,2.01249599456787109e+00,1.15733122825622559e+00,6.19061663746833801e-02,5.56711845397949219e+01,9.41392302513122559e-01,1.33215322494506836e+01,6.14055514335632324e-01,8.18561613559722900e-02],"default_left":[true,true,true,true,true,true,true,true,true,true,true,true,true,true,true,true,true,true,true,true,true,true,true,true,true,true,true,true,true,true,true,true,true,true,true,true,true,true,true,true,true,true,true,true,true,true,true,true,true,true,true,true,true,true,true,true,true,true,true,true,true,true,true,false,false,false,false,false,false,false,false,false,false,false,false,false,false,false,false,false,false,false,false,false,false,false,false,false,false,false,false,false,false,false,false,false,false,false,false,false,false,false,false,false,false,false,false,false,false,false,false,false,false,false,false,false,false,false,false,false,false,false,false,false,false,false,false],"id":6,"leaf_child_counts":[0,0,0,0,0,0,0,0,0,0,0,0,0,0,0,0,0,0,0,0,0,0,0,0,0,0,0,0,0,0,0,0,0,0,0,0,0,0,0,0,0,0,0,0,0,0,0,0,0,0,0,0,0,0,0,0,0,0,0,0,0,0,0,0,0,0,0,0,0,0,0,0,0,0,0,0,0,0,0,0,0,0,0,0,0,0,0,0,0,0,0,0,0,0,0,0,0,0,0,0,0,0,0,0,0,0,0,0,0,0,0,0,0,0,0,0,0,0,0,0,0,0,0,0,0,0,0],"left_children":[1,3,5,7,9,11,13,15,17,19,21,23,25,27,29,31,33,35,37,39,41,43,45,47,49,51,53,55,57,59,61,63,65,67,69,71,73,75,77,79,81,83,85,87,89,91,93,95,97,99,101,103,105,107,109,111,113,115,117,119,121,123,125,-1,-1,-1,-1,-1,-1,-1,-1,-1,-1,-1,-1,-1,-1,-1,-1,-1,-1,-1,-1,-1,-1,-1,-1,-1,-1,-1,-1,-1,-1,-1,-1,-1,-1,-1,-1,-1,-1,-1,-1,-1,-1,-1,-1,-1,-1,-1,-1,-1,-1,-1,-1,-1,-1,-1,-1,-1,-1,-1,-1,-1,-1,-1,-1],"loss_changes":[1.23483175000000000e+06,2.09035000000000000e+05,1.41402000000000000e+05,1.46483000000000000e+05,1.24132812500000000e+03,4.26710000000000000e+04,3.58489062500000000e+04,1.42436750000000000e+05,4.87091250000000000e+04,4.81719726562500000e+02,8.10148437500000000e+02,2.03015625000000000e+04,3.80964843750000000e+02,1.49699375000000000e+04,4.11642968750000000e+03,9.26666250000000000e+04,3.52867500000000000e+04,3.51965312500000000e+04,1.26719625000000000e+05,6.55522460937500000e+02,2.60755859375000000e+02,1.93522949218750000e+02,2.20768945312500000e+03,3.58784375000000000e+03,5.78778750000000000e+04,1.27876464843750000e+02,1.43988281250000000e+03,8.68607812500000000e+03,3.83362792968750000e+02,3.44755078125000000e+03,5.87441406250000000e+02,2.97677187500000000e+04,1.43196250000000000e+04,1.74733750000000000e+04,5.20535156250000000e+02,6.76282812500000000e+03,1.21328125000000000e+04,9.79343750000000000e+03,8.61200000000000000e+03,1.18451416015625000e+02,5.69368652343750000e+02,2.03599121093750000e+02,1.13602020263671875e+02,4.77884521484375000e+01,8.53322753906250000e+01,3.01017578125000000e+02,3.24091796875000000e+02,6.11531054687500000e+03,2.18257031250000000e+03,1.04817812500000000e+04,1.18786562500000000e+04,6.12214965820312500e+01,4.76704101562500000e+01,8.14199218750000000e+01,1.82596679687500000e+02,1.51970156250000000e+04,1.90460156250000000e+03,5.72703613281250000e+02,8.94973144531250000e+01,2.64949218750000000e+03,8.24407812500000000e+03,4.20072119140625000e+03,2.51723754882812500e+02,0.00000000000000000e+00,0.00000000000000000e+00,0.00000000000000000e+00,0.00000000000000000e+00,0.00000000000000000e+00,0.00000000000000000e+00,0.00000000000000000e+00,0.00000000000000000e+00,0.00000000000000000e+00,0.00000000000000000e+00,0.00000000000000000e+00,0.00000000000000000e+00,0.00000000000000000e+00,0.00000000000000000e+00,0.00000000000000000e+00,0.00000000000000000e+00,0.00000000000000000e+00,0.00000000000000000e+00,0.00000000000000000e+00,0.00000000000000000e+00,0.00000000000000000e+00,0.00000000000000000e+00,0.00000000000000000e+00,0.00000000000000000e+00,0.00000000000000000e+00,0.00000000000000000e+00,0.00000000000000000e+00,0.00000000000000000e+00,0.00000000000000000e+00,0.00000000000000000e+00,0.00000000000000000e+00,0.00000000000000000e+00,0.00000000000000000e+00,0.00000000000000000e+00,0.00000000000000000e+00,0.00000000000000000e+00,0.00000000000000000e+00,0.00000000000000000e+00,0.00000000000000000e+00,0.00000000000000000e+00,0.00000000000000000e+00,0.00000000000000000e+00,0.00000000000000000e+00,0.00000000000000000e+00,0.00000000000000000e+00,0.00000000000000000e+00,0.00000000000000000e+00,0.00000000000000000e+00,0.00000000000000000e+00,0.00000000000000000e+00,0.00000000000000000e+00,0.00000000000000000e+00,0.00000000000000000e+00,0.00000000000000000e+00,0.00000000000000000e+00,0.00000000000000000e+00,0.00000000000000000e+00,0.00000000000000000e+00,0.00000000000000000e+00,0.00000000000000000e+00,0.00000000000000000e+00,0.00000000000000000e+00,0.00000000000000000e+00,0.00000000000000000e+00],"parents":[2147483647,0,0,1,1,2,2,3,3,4,4,5,5,6,6,7,7,8,8,9,9,10,10,11,11,12,12,13,13,14,14,15,15,16,16,17,17,18,18,19,19,20,20,21,21,22,22,23,23,24,24,25,25,26,26,27,27,28,28,29,29,30,30,31,31,32,32,33,33,34,34,35,35,36,36,37,37,38,38,39,39,40,40,41,41,42,42,43,43,44,44,45,45,46,46,47,47,48,48,49,49,50,50,51,51,52,52,53,53,54,54,55,55,56,56,57,57,58,58,59,59,60,60,61,61,62,62],"right_children":[2,4,6,8,10,12,14,16,18,20,22,24,26,28,30,32,34,36,38,40,42,44,46,48,50,52,54,56,58,60,62,64,66,68,70,72,74,76,78,80,82,84,86,88,90,92,94,96,98,100,102,104,106,108,110,112,114,116,118,120,122,124,126,-1,-1,-1,-1,-1,-1,-1,-1,-1,-1,-1,-1,-1,-1,-1,-1,-1,-1,-1,-1,-1,-1,-1,-1,-1,-1,-1,-1,-1,-1,-1,-1,-1,-1,-1,-1,-1,-1,-1,-1,-1,-1,-1,-1,-1,-1,-1,-1,-1,-1,-1,-1,-1,-1,-1,-1,-1,-1,-1,-1,-1,-1,-1,-1],"split_conditions":[4.36751991510391235e-01,1.49999996647238731e-02,6.67894005775451660e-01,1.29036009311676025e-01,1.30551502108573914e-01,1.49999996647238731e-02,8.43932509422302246e-01,1.31950000000000000e+03,1.18650000000000000e+03,1.50000000000000000e+00,7.50000000000000000e+00,7.50000000000000000e+00,7.50000000000000000e+00,1.49999996647238731e-02,9.30725991725921631e-01,6.50000000000000000e+00,2.50000000000000000e+01,1.32500000000000000e+02,1.61150000000000000e+03,7.50000000000000000e+00,3.50000000000000000e+00,1.42500000000000000e+02,1.49050000000000000e+03,2.03500000000000000e+02,2.10350000000000000e+03,3.15500000000000000e+02,1.63450000000000000e+03,2.88250000000000000e+03,2.03650000000000000e+03,9.30626988410949707e-01,1.18850000000000000e+03,6.35000000000000000e+01,2.10000000000000000e+01,6.25499989837408066e-04,3.83200000000000000e+03,4.95000000000000000e+01,4.35625493526458740e-01,6.00000000000000000e+01,3.77135008573532104e-01,5.45000000000000000e+01,1.26550000000000000e+03,1.45000000000000000e+01,1.75650000000000000e+03,3.38428497314453125e-01,1.74900000000000000e+03,1.50000000000000000e+00,1.45000000000000000e+01,4.54984486103057861e-01,2.65500000000000000e+02,1.46050000000000000e+03,5.14558494091033936e-01,2.50000000000000000e+00,5.25500000000000000e+02,4.39942002296447754e-01,4.19700000000000000e+03,1.67850000000000000e+03,7.21543014049530029e-01,1.42400000000000000e+03,7.89211511611938477e-01,3.22350000000000000e+03,1.16650000000000000e+03,9.63773012161254883e-01,9.55594003200531006e-01,1.81883800029754639e+00,1.03007519245147705e+00,1.57938706874847412e+00,2.46784281730651855e+00,3.09318017959594727e+00,1.24523591995239258e+00,3.31260800361633301e-01,6.36870086193084717e-01,3.89259147644042969e+00,1.24601626396179199e+00,5.71855545043945312e-01,3.76078295707702637e+00,1.59220170974731445e+00,2.24377894401550293e+00,9.70732629299163818e-01,7.58984446525573730e-01,